<?xml version="1.0"?>
<opencv_storage>
<opencv_ml_ann_mlp>
  <format>3</format>
  <layer_sizes>
    256 100 4</layer_sizes>
  <activation_function>SIGMOID_SYM</activation_function>
  <f_param1>6.6666666666666663e-01</f_param1>
  <f_param2>1.7159000000000000e+00</f_param2>
  <min_val>-9.4999999999999996e-01</min_val>
  <max_val>9.4999999999999996e-01</max_val>
  <min_val1>-9.7999999999999998e-01</min_val1>
  <max_val1>9.7999999999999998e-01</max_val1>
  <training_params>
    <train_method>BACKPROP</train_method>
    <dw_scale>2.9999999999999999e-02</dw_scale>
    <moment_scale>0.</moment_scale>
    <term_criteria>
      <iterations>300</iterations></term_criteria></training_params>
  <input_scale>
    5.5179528998809413e-01 -2.1494351412326923e-01
    1.0778298606029482e+00 -1.2846227989744441e-01
    8.8448829057941603e-01 -5.3994924715603881e-02 1. 0.
    1.8574254102167738e+00 -5.3994924715603888e-02
    6.7283067611048936e-02 -9.6230433908825810e-02
    2.7537046698858040e-02 -2.1453280567714983e-01
    1.8037117475985628e-02 -3.5261515995931203e-01
    1.8983457084523585e-02 -3.2045620723787338e-01
    1.6666845401820746e-02 -3.6419964210897254e-01
    1.8766965357090850e-02 -3.0283553691049803e-01
    3.5501283718237797e-02 -1.9556666466878089e-01
    3.3572106538419036e-02 -2.2817321246169683e-01
    6.0694270591587787e-02 -2.1295925756990247e-01
    2.0027313828965862e-01 -4.6109396955060938e-01
    1.9996569973983461e-01 -4.6096744155142105e-01
    5.5751669645838220e-01 -1.9772394467419369e-01
    1.0537482939972207e+00 -1.1640242782527438e-01
    7.2840212165363682e-02 -5.3994924715603888e-02 1. 0.
    3.9797571954707339e-01 -9.3709399079398098e-02
    5.0472127951357297e-02 -2.1215900295832166e-01
    2.4966462093686723e-02 -2.9183181418230902e-01
    1.8305412160761876e-02 -4.1586277917544784e-01
    1.0975874262688317e-02 -6.2619915197535148e-01
    1.3574618094029652e-02 -4.5538108373576214e-01
    1.5338156170415708e-02 -3.9660726492978987e-01
    1.6821363468013564e-02 -3.3628057142305023e-01
    1.6577344735079127e-02 -3.5708757118295448e-01
    2.3202576124948280e-02 -2.9751907932310134e-01
    8.2387255129575940e-02 -2.5458619826377682e-01
    2.0032967354169201e-01 -4.6297119321408470e-01
    7.4698637576590809e-01 -1.8674659394147702e-01
    1.2193063088361251e+00 -1.0633485251477835e-01
    5.2396772590295557e-02 -7.6615048293368210e-02
    1.4054168568565741e+00 -6.9453740019074880e-02
    3.7148508204335473e-01 -5.3994924715603888e-02
    2.1920277418081169e-02 -3.0573689259288794e-01
    1.3875962444168432e-02 -4.4798383402597264e-01
    1.6252694654561996e-02 -3.9800203421520425e-01
    9.9876079874021469e-03 -8.0263785701084989e-01
    9.3551673135885902e-03 -1.0600709938479165e+00
    9.2014741761631113e-03 -1.0128576196354429e+00
    1.0747170429463637e-02 -6.1549419950832307e-01
    1.1831558916067655e-02 -5.4373579913986503e-01
    1.1558366484232955e-02 -5.4552801813373908e-01
    1.8325748040868763e-02 -3.1223025949863897e-01
    4.7136172051378211e-02 -2.1827884324955082e-01
    8.0449624970255296e-01 -1.7072158787292546e-01
    7.6387881769704338e+00 -1.3323467750529827e-01
    4.1075044114841824e-01 -8.5971022565948005e-02
    4.4292870240538053e-02 -1.5554007921677315e-01
    2.0218697949884790e-02 -2.4415253280180646e-01
    1.6361267852884488e-02 -3.5680881230331229e-01
    9.6422095596708432e-03 -7.5531575873386680e-01
    9.4883703034609138e-03 -8.7099929489153705e-01
    9.9211819473261510e-03 -1.5144222792270237e+00
    9.9638564644861979e-03 -1.4630069477360403e+00
    9.2143650533661782e-03 -1.2026889270236669e+00
    9.0384307663674470e-03 -7.5271210638050756e-01
    1.1395776109035917e-02 -4.5493660844590184e-01
    1.4399368461442359e-02 -3.7940661550730681e-01
    2.0398116610964769e-02 -2.9351941053568492e-01
    7.0743734876251158e-02 -2.1654986286247810e-01
    8.2214817299031129e-01 -1.7207752457936748e-01
    1.5331650005321162e+00 -6.6853125023202745e-02
    4.4245333652561247e-01 -9.7751318534728335e-02
    1.9805223239373407e-02 -3.6023628432778898e-01
    1.1533550976259152e-02 -5.2866579009783232e-01
    1.1393016760016569e-02 -5.6623955681977700e-01
    9.1592806820046009e-03 -9.2652514294301203e-01
    9.7651376510522921e-03 -1.2523221296913456e+00
    1.1459192210604627e-02 -1.9799085704345831e+00
    9.7827365172138761e-03 -1.4568314718134663e+00
    9.3775417520489193e-03 -1.1568996930674538e+00
    9.2850533996418228e-03 -6.6663444437312136e-01
    1.4901891328687701e-02 -3.3429620751012495e-01
    2.8246037511002488e-02 -2.2818528559033696e-01
    5.2671691083385028e-02 -1.9675326465741211e-01
    2.0163894520759451e-01 -4.5896306423705374e-01
    8.7098098050569628e-01 -1.5951105166238042e-01
    9.6122694890508065e-02 -1.3943379287896374e-01
    2.6781977788324387e-02 -2.3792361663116082e-01
    1.2116928574149919e-02 -5.3885108525391123e-01
    9.9040915822243680e-03 -6.5450498237996091e-01
    9.9281401341440242e-03 -6.8224216462508880e-01
    8.8989261072004548e-03 -1.0847377021137483e+00
    9.8017930066198675e-03 -1.3128134040319877e+00
    1.2090389098396437e-02 -2.1608055865389910e+00
    9.7815078916945707e-03 -1.3471468005372491e+00
    9.5113729327622951e-03 -1.0775224260543006e+00
    9.1910082141751937e-03 -9.3529195798086284e-01
    1.4804671018004860e-02 -3.2075352644532040e-01
    1.6971049078341766e-02 -2.8860650322180037e-01
    1.7265613229855276e-02 -2.9702877643687070e-01
    2.5931909990573741e-02 -2.4544854339915148e-01
    3.3293765354771493e-02 -1.8079288861253823e-01
    2.1787351836518625e-02 -2.4365099568339285e-01
    1.2572853400580983e-02 -4.7005659181648840e-01
    9.4843621910276898e-03 -7.2977204312299981e-01
    9.9079794864685902e-03 -6.4802218158737435e-01
    9.3577358546390477e-03 -1.2764060516609692e+00
    1.1717630823439459e-02 -2.1585647246551121e+00
    1.2270748224154611e-02 -2.2736198286610194e+00
    1.1023797810127738e-02 -2.0556819241978901e+00
    9.3522244878431037e-03 -1.1281664522442596e+00
    9.5613418149094586e-03 -1.1157307649246961e+00
    9.0657920671672557e-03 -1.1688019714501969e+00
    1.4319059286908060e-02 -3.8857098384676381e-01
    1.7593267864680438e-02 -3.5268364882219855e-01
    2.0476814461189433e-02 -3.1495007358765492e-01
    2.8338732720285118e-02 -2.2835746250183239e-01
    5.1548843824936030e-01 -1.7232898371708266e-01
    3.0220403621611578e-02 -2.3754642846755147e-01
    1.2541429073747968e-02 -5.3220866749585127e-01
    8.5234564169662155e-03 -1.0740050635169116e+00
    8.5660984784509276e-03 -1.0678737417147954e+00
    1.0639917040956130e-02 -1.9503524675917749e+00
    1.0647953625220400e-02 -1.7367926683462693e+00
    1.3536655635800449e-02 -2.6155258434440363e+00
    1.0747868795560625e-02 -1.9165574641199998e+00
    9.0465022349977744e-03 -1.0700907629194607e+00
    9.2854990404256411e-03 -1.0518257008961218e+00
    9.7245633210166806e-03 -1.3982734754286281e+00
    1.0403703013943244e-02 -5.6730424748705632e-01
    1.7176563645491277e-02 -4.1668146401635092e-01
    1.5040567392099085e-02 -4.0439013898117571e-01
    1.7965537981567879e-02 -2.9397678284373718e-01
    6.1714188171601170e-01 -1.3634529944888632e-01
    2.3713587477844980e-02 -2.1569713726214226e-01
    1.3027907856450343e-02 -4.0928081454842691e-01
    9.6620163962082076e-03 -8.4938673790038499e-01
    9.6174049398042652e-03 -1.6584711582387466e+00
    9.8787837511498892e-03 -1.7129064372233647e+00
    1.0157180568434874e-02 -1.2899324055035299e+00
    9.8970016210974416e-03 -1.3983542639297093e+00
    1.0512594930544839e-02 -1.5396673191590411e+00
    9.7690615505717920e-03 -1.3844236935766712e+00
    1.0032720623487127e-02 -1.5166323775074928e+00
    1.1571463883456062e-02 -2.1658483868142020e+00
    1.1112182226597088e-02 -6.8640337247953931e-01
    1.7758514115651679e-02 -3.7380639741695870e-01
    3.1562454541133461e-02 -2.8250231840741258e-01
    2.4413033558220561e-02 -2.3994321645448755e-01
    9.1780663568157916e-01 -1.1739387200578338e-01
    4.2816416782448101e+00 -1.1201969507035842e-01
    3.7707172384103572e-02 -2.1166438916774419e-01
    1.0649262593311256e-02 -6.3372399577812411e-01
    8.7439513193768928e-03 -1.0983572106441712e+00
    9.7711303993906710e-03 -1.3519949556691777e+00
    9.5026725742418765e-03 -1.2469219108392560e+00
    9.4561720440522676e-03 -9.9814843921971486e-01
    9.0190633846446537e-03 -9.5046245877947089e-01
    8.8208774011155015e-03 -1.0995326248832344e+00
    1.0095134528365801e-02 -1.6585953874249371e+00
    1.0834073303571971e-02 -1.9564005800714748e+00
    1.2124013806583287e-02 -6.2569074740777064e-01
    3.6429619362349473e-02 -1.9369120294691042e-01
    2.6645610846839043e-02 -1.8806843934920117e-01
    2.8372641800175896e-01 -2.7052984042028183e-01
    1.1560821181976062e+00 -1.0082111495909357e-01
    5.1913071358852969e+00 -1.3581908204351067e-01
    3.4031005521313405e-02 -2.1338627589963086e-01
    9.2545444694650120e-03 -8.4638727777278699e-01
    9.0063416106615744e-03 -1.1230436726433961e+00
    9.3840555142985088e-03 -1.4440533799561217e+00
    9.0342432131291176e-03 -1.2781090536434732e+00
    8.7659447278105058e-03 -8.2731151608458109e-01
    9.3785878971412058e-03 -7.1105508995738309e-01
    9.2097338184946812e-03 -8.8673137733244867e-01
    9.3222784968424420e-03 -1.4944100224080710e+00
    8.8584404903059178e-03 -1.1484298562388751e+00
    1.6952353472204026e-02 -3.6186375449533187e-01
    1.1077655511628455e+00 -7.7285968685779916e-02
    9.9994930077313049e-01 -7.5577563430527295e-02
    1.0733712627632386e+00 -1.2169034665048344e-01
    1.4799566584750665e+00 -7.7439592594625573e-02
    3.6011255093483234e-02 -1.4729022068758985e-01
    1.2758160653446886e-02 -4.9048451930766007e-01
    9.0042001360406583e-03 -8.5898498797804146e-01
    9.0616191001119829e-03 -8.9135775322555022e-01
    9.0762220252239446e-03 -1.0745560884339989e+00
    8.8976002533185626e-03 -8.4268551236371736e-01
    1.0615156607349251e-02 -6.3107723190959164e-01
    1.2446343146203505e-02 -4.7440828875878011e-01
    9.4934671017142241e-03 -7.1879896549781586e-01
    8.9904679961431526e-03 -1.1497867704137263e+00
    8.8256463281825345e-03 -8.3369005068107982e-01
    3.0033815009295962e-02 -1.8448096254256502e-01 1. 0. 1. 0. 1. 0.
    6.2319249628847366e+00 -1.2681242657032896e-01
    1.9692988522693987e-02 -2.5847047436035858e-01
    1.0151466083563465e-02 -5.9495263869396220e-01
    1.0092026977745059e-02 -6.3735257584741689e-01
    1.0335222094133492e-02 -5.8715478309782221e-01
    9.1241170334865982e-03 -8.5649996292252684e-01
    9.6173011701250841e-03 -6.7052718390779076e-01
    1.1324060003637598e-02 -5.3651026145141156e-01
    1.0914711508846936e-02 -6.2061557300304093e-01
    9.7468125383516225e-03 -8.6619129683124263e-01
    9.2133826858171244e-03 -8.9618894782013603e-01
    9.8335763509880044e-03 -5.7935201135312175e-01
    2.4081565473047017e-01 -8.3305415444552181e-02 1. 0. 1. 0. 1. 0.
    1.4150269200383307e+00 -1.5631111326004818e-01
    1.8194393594045660e-02 -3.1702673024043510e-01
    1.1008380320922636e-02 -5.5515517967257522e-01
    1.3777147635442091e-02 -4.4174982098525079e-01
    1.0429348025759030e-02 -6.4082886401299011e-01
    9.5198372048319845e-03 -7.6454808854038736e-01
    9.8215055369739960e-03 -6.8593508873779141e-01
    9.7757036253489516e-03 -7.1209180652323834e-01
    9.9528218666963611e-03 -7.4617231378517201e-01
    1.0215656674948495e-02 -7.6575849715180777e-01
    9.1365671104388854e-03 -7.0989001665061202e-01
    2.5467092691336939e-02 -1.9211367887796324e-01 1. 0. 1. 0. 1. 0. 1.
    0. 3.9181504687520669e-01 -1.0820473678239720e-01
    1.1745977595155197e-02 -4.8462401165127239e-01
    1.3378933182786242e-02 -4.3341520752607526e-01
    2.4640957086985670e-02 -2.0787226007683843e-01
    1.1578990894137345e-02 -4.4757512185855897e-01
    9.1852835661951470e-03 -7.0953645408285948e-01
    9.7038790853008119e-03 -6.6795974668848224e-01
    9.3150900268009745e-03 -7.8620442976203331e-01
    8.9625297668965379e-03 -8.6298219031661061e-01
    9.1809373648586053e-03 -7.5326388426095725e-01
    9.9176321265221461e-03 -5.1479430014877747e-01
    1.8574254102167739e+01 -5.3994924715603888e-02 1. 0. 1. 0. 1. 0. 1.
    0. 3.8095025991942040e-02 -1.3909114141243953e-01
    1.0849544366171734e-02 -5.6553250008670164e-01
    1.5409832811679819e-02 -3.4752756672387219e-01
    2.5234510666288207e-02 -1.9791485400478367e-01
    1.1611272910172683e-02 -4.7977509635230958e-01
    8.7552712180682911e-03 -8.3147080064846801e-01
    8.9595727518885365e-03 -8.2227520741242144e-01
    8.8082593923036849e-03 -1.0084688842031413e+00
    8.7801669919336783e-03 -8.5578552055972179e-01
    9.7855763712090382e-03 -5.6676692912781645e-01
    1.6060909802699547e-02 -3.0632450353346435e-01 1. 0. 1. 0. 1. 0.
    1.0755252871068427e+01 -9.3795809922108370e-02
    9.3280096862022148e+00 -1.0846522890932808e-01</input_scale>
  <output_scale>
    5.2631578947368418e-01 4.9999999999999994e-01 5.2631578947368418e-01
    4.9999999999999994e-01 5.2631578947368418e-01 4.9999999999999994e-01
    5.2631578947368418e-01 4.9999999999999994e-01</output_scale>
  <inv_output_scale>
    1.8999999999999999e+00 -9.4999999999999996e-01
    1.8999999999999999e+00 -9.4999999999999996e-01
    1.8999999999999999e+00 -9.4999999999999996e-01
    1.8999999999999999e+00 -9.4999999999999996e-01</inv_output_scale>
  <weights>
    <_>
      5.4937589733697306e-02 -3.9277005759832097e-02
      1.2949281984637746e-02 5.5111468539636714e-02
      -2.7023349405711501e-02 -2.4924332656299033e-02
      6.0193431582694683e-02 -1.1649818556423355e-02
      -1.0959221762142553e-01 -2.9222840013504201e-02
      -7.3135498802168797e-02 3.7574068458110017e-02
      -5.7632135446136171e-02 -5.1242713705763054e-02
      4.8237442683566924e-03 3.6333265180042748e-02
      -4.5617884960155959e-02 2.1969554180576209e-02
      5.4764165738179792e-02 -4.2928193484017024e-02
      5.7928427267604490e-03 -6.5668346142704224e-03
      -3.4338710510722660e-02 3.5074304106952864e-02
      -5.1382250356869268e-02 4.2134487023930682e-02
      -1.0003070135654267e-02 -3.0929917623696769e-02
      -5.9976267151015117e-02 2.7562281382725835e-02
      -2.0905521119644537e-02 2.5721687279889181e-02
      -1.0592899945658778e-02 8.1473606471404517e-03
      -3.3244715674830415e-02 -5.0042587110689360e-02
      4.6193811397688585e-02 8.2752798471090478e-03
      -3.4961895282060541e-02 4.0417145172311271e-02
      -4.6966888209610341e-02 3.2778898157859594e-02
      -1.1226039391217331e-02 -4.9039439264677909e-02
      -4.2947277470713259e-02 -4.5248041105499612e-02
      4.0239791912320792e-02 -4.0397041973417640e-02
      4.8448738403572188e-02 -1.9625486491854954e-02
      -5.7523172089427248e-02 6.0254552030679552e-02
      5.8457743558267196e-02 -3.0280530250122954e-02
      9.5458538160510045e-02 -6.3405446867928261e-02
      1.7879929486519206e-02 -5.3076863321117142e-02
      -3.0077864660159694e-03 8.4737904118402374e-02
      -1.9542077966085727e-02 -4.4517586162794810e-02
      9.7256749118559867e-03 6.6317952561298091e-02
      -6.3367368053842174e-02 -8.5096061099134535e-02
      8.3302002278554822e-03 -7.1025962985805432e-03
      5.9775360859745344e-02 4.1490454674140552e-02
      -4.9444528470870518e-02 -4.7512140042238853e-02
      -6.0972568806629867e-03 7.2371078643040212e-03
      6.8335567126533978e-02 3.0722138859065877e-02
      -4.6515668281276498e-02 -4.5692643173348708e-02
      5.9246615466864987e-02 7.1940686978429771e-02
      2.7531963965790201e-02 -1.0393211813899975e-01
      3.1370318566182200e-02 -2.3212831690026300e-02
      -2.7952292924608331e-02 2.5513403081940209e-02
      4.9691894775989669e-02 -6.8582629930630273e-02
      5.9968643106025926e-02 2.4111586001604200e-02
      -6.3741037056551611e-02 1.7162349066134275e-02
      4.8515806618718717e-02 -9.5552136420411389e-03
      -6.1053926388155134e-02 4.3480697383484396e-02
      -6.0605375372523293e-02 6.9226914116673208e-03
      2.8385474863838002e-02 -3.7228931458816589e-03
      7.9615269617280080e-03 -3.7235415449655314e-02
      -7.2924938437472489e-03 2.0108237947295549e-02
      -2.4011989834318816e-02 -5.1701950327670776e-02
      4.8511956617713958e-02 1.7717487714717539e-02
      -5.4227205904035992e-02 -1.0580841255632130e-01
      -1.9367349043830018e-02 3.8971579464442949e-02
      -5.7386659776010325e-02 -2.1386104520455394e-02
      4.4225734854726730e-02 -1.0795375246646560e-02
      -1.9516772463551116e-02 -2.3510311128029805e-02
      1.8521636396294981e-02 -1.9174346678571259e-03
      8.0388018734376242e-03 -9.6803802905162436e-03
      -8.6374146330407305e-03 1.3347583970193583e-02
      -2.1364613643326192e-02 2.0761290935161582e-02
      -2.3610989876835114e-02 -3.0807641941607233e-02
      -3.2418421695802030e-02 1.3590157401598109e-03
      2.5401717754171705e-03 8.7101828998731951e-02
      -1.7005201211285598e-02 6.7571629838407823e-02
      -1.5565851574472666e-02 -2.2772171503635964e-02
      8.8616928610875511e-03 5.2834219540880255e-03
      -5.3659035450164911e-03 -2.7419313478385648e-03
      -3.8263131569582325e-02 -5.1651226938115666e-03
      7.8381209493074613e-03 -1.8690430849960169e-02
      -3.3972463774003562e-03 2.8591442226020956e-04
      1.7725662008996813e-02 3.1203800928680616e-03
      1.6845464873936490e-02 -1.8439772823129075e-02
      2.2570217397983251e-03 -1.4247623834353755e-02
      8.3408921862919826e-03 -2.2164120235459380e-02
      -5.2127812771272548e-03 -3.0677791932146512e-02
      2.4627540710673173e-02 -4.6898680219745643e-02
      -4.5671824918484927e-02 -1.6091376631197446e-02
      -1.8052287015660546e-02 -6.3490636161702236e-03
      -4.8954599199732274e-02 -3.0904478134355751e-02
      -3.9075307089796443e-03 -5.6442840225031536e-02
      1.4494399837487766e-02 -1.4700710930787524e-02
      4.5276759600608653e-02 2.2845525478368670e-02
      -4.6732883540224002e-03 -3.7806093749576525e-02
      3.4326334087732786e-02 -1.0563130102457192e-02
      1.0919727009993050e-02 1.9668627639432045e-03
      5.1190869815449331e-03 -4.5697197404083061e-02
      1.3622745239023484e-02 2.2906110757332017e-02
      2.7465202384043010e-02 -5.6504567666884081e-02
      9.7708327938825917e-03 -1.0160129760966030e-02
      9.8774375945059490e-03 -5.5014058942906465e-04
      -2.7165194560507533e-03 6.6023819640903623e-03
      3.6686528415020354e-02 -5.5393152190599771e-03
      -4.7017294997446453e-02 -6.7894426764004640e-03
      1.3115677013221937e-02 2.1519746550277045e-02
      -5.9336982817522407e-02 2.5929662127157551e-03
      -3.8439588695030384e-02 2.7095259369666658e-02
      1.0172211447188840e-02 3.9071447824626506e-03
      8.6282362159491467e-03 6.5178256298461688e-03
      1.4452246547072030e-04 2.0233810288916698e-02
      -3.0195496664916981e-02 7.9009747612394706e-03
      -1.7007872656751746e-03 1.1088216059091712e-02
      5.1722637549967369e-03 1.8610649795081900e-02
      -9.3161013323926952e-03 -9.3152639944882390e-03
      -4.7793744382448652e-03 -9.1159652836937666e-03
      -2.4633661094264462e-02 6.8726419910325465e-03
      -2.2452149802458188e-02 1.0280652911918072e-02
      -2.3293887054124055e-03 -1.3423009518050085e-02
      -8.1268617298890407e-03 4.9416541421364929e-03
      -9.7199358169756597e-03 1.6862040244873831e-02
      -1.4808582347770130e-03 6.1369210577171410e-03
      1.1482308832195236e-03 -1.8045985645030058e-02
      2.4918632700070701e-03 9.4444273475778173e-03
      -2.8453174424825541e-02 -1.0171796657628388e-02
      -2.3833317438639017e-03 -1.2052784450394628e-02
      -3.4979062483207236e-02 -2.1826506625309938e-02
      1.8734748681677255e-02 4.8884958529110192e-03
      1.4473830737567519e-02 2.2151607479898763e-02
      -2.2785352878969471e-03 1.1925522955400211e-02
      -1.4555433510151197e-02 -1.3057947987653545e-03
      -1.8630254953363214e-02 -1.1121215656227023e-02
      1.3236168299159476e-02 -1.3473396233014865e-02
      3.1308954004077988e-02 4.4772565506754807e-03
      -1.6153407686629918e-02 1.5583458217144906e-02
      8.7596229236329443e-03 -1.0344241805592730e-02
      2.9388497391986238e-02 2.4008559893590399e-03
      3.0801831752656550e-02 -8.6519692272913340e-03
      5.8857583250847383e-03 1.1691679017621893e-02
      9.7314473449848522e-03 -1.5890536461582439e-02
      1.4331395579688698e-02 1.2412818054687694e-02
      -1.2702503342412578e-02 1.5225924839982925e-02
      -2.7318280418553429e-03 6.5085879031898984e-03
      2.0276246910917364e-02 4.0876640009289865e-03
      -2.3136702698965856e-02 -2.1712940488371704e-04
      1.1050749920209891e-04 -2.1833708525622268e-02
      1.8265599394115675e-02 2.1670206156564183e-02
      -2.2994593123636827e-02 2.7095328615794109e-04
      1.8090220479435436e-02 6.3568138036813719e-04
      8.0634089669880792e-03 2.2679102037143729e-02
      3.0847994479402917e-02 -5.1657595090154555e-03
      -1.4876676909461050e-02 4.9087827199306502e-03
      1.1774361029530230e-02 -5.6790354965907709e-03
      1.1466955513112472e-02 2.5350997892491164e-02
      7.8733637610317597e-03 5.6910580288415061e-03
      1.7223241141936935e-02 1.4216225289117675e-03
      4.6438125324238487e-03 1.1815901306199608e-03
      -1.1013461737047748e-02 -1.0456121758604435e-02
      -2.1815806147153756e-03 -1.2406331645457519e-02
      -7.2706338650187245e-03 6.5052556948878466e-03
      1.3045993524808182e-03 -6.9607025694219653e-03
      6.2382286687865801e-03 -1.8773375632281503e-03
      3.1375766273618222e-03 -7.2543010445545626e-03
      -2.9575558724824792e-03 7.0386588545279672e-03
      2.2788081385752520e-04 2.5963776180841359e-03
      -4.2599883370642942e-03 -1.2724360380662577e-03
      7.5956470964149191e-03 -5.7303345730574246e-03
      2.1903916710952368e-04 -7.1014699179723180e-03
      1.8205171964180554e-03 -6.0368521110895036e-03
      -4.2288145326129815e-03 2.7696609573909211e-03
      -5.8165272635027979e-03 2.9625475769400385e-03
      -5.7635873171796026e-03 -6.6842437497314439e-03
      7.6525418412189813e-03 6.0860473122861837e-03
      2.3793908871777856e-03 -1.0154400943721056e-04
      -4.2848307063634251e-03 -3.0764760784545010e-03
      4.6918975369608423e-04 1.6466597983061622e-03
      6.4568321867444671e-03 2.0741070440143225e-03
      -2.1844349322753002e-03 3.7661090617624967e-03
      -6.8228617482488712e-03 -2.7135939588104276e-03
      7.6233967534743811e-03 -4.4929569265358031e-03
      -3.4208694510213930e-03 1.3049878719557332e-03
      -2.7208870632889916e-03 1.2096125281548468e-03
      5.6803898022148320e-03 3.6841288842660571e-03
      4.4957334250793814e-03 -1.0522158790369760e-03
      2.2822016419273804e-03 -1.4574087555888316e-03
      -1.2179295018549543e-03 -1.4066222818315804e-03
      -3.0345227751657441e-03 -3.0093238463869024e-03
      -6.1895832653804505e-03 7.3609188830152175e-03
      -7.3749309562484286e-03 -2.5913795845264663e-03
      7.3198129160619071e-03 8.1258810700818621e-04
      4.0834212440326245e-04 2.1734068862597458e-03
      5.1699634657152932e-03 -1.8092104887320788e-03
      -1.2637370504726324e-03 -6.5117873647573899e-03
      -1.3226174505192917e-03 4.3372999335344799e-03
      3.0616131087246915e-04 7.3536589887563692e-03
      -5.9863259021918818e-03 -6.7465745464656800e-03
      7.6494368412212150e-03 -2.0341070147480789e-03
      7.6171709512755522e-04 -7.2349825449671817e-03
      1.2944083164857228e-03 5.8606930668221027e-03
      -1.5246706643142532e-03 -3.4401790295732174e-03
      -3.9062935269651815e-03 -1.8998840397283054e-03
      5.3686683639929287e-03 5.6565713554627452e-03
      4.9733213646758461e-03 -2.6370266377710545e-03
      -3.4175456163198672e-03 2.7090002374128030e-03
      5.0571454582758598e-03 -8.3029375999148965e-05
      1.3666140544300472e-03 -1.8125373154126024e-03
      6.5942549448564317e-03 -3.3427983344563473e-03
      6.5129487417778659e-03 -1.1714511122844591e-03
      3.2511381800523409e-03 -6.5453658537697364e-03
      1.3709179087187606e-02 -3.7285111459096867e-02
      4.0266966964480873e-03 1.1170777784677472e-02
      -2.6649596951919936e-02 -2.2332671316206247e-02
      2.9060054470917102e-02 -3.7603658720640122e-02
      -3.3501791674668553e-02 -3.0011586215830346e-02
      -4.0566765824982705e-02 4.0411289096174842e-02
      -1.3764557441905988e-02 -1.5323810102864367e-02
      2.9559858202318358e-02 1.1035185903829710e-02
      -1.5343790587639412e-03 9.3260004487920843e-05
      3.5102214918594325e-02 -1.4917905658600805e-02
      1.5202102972710879e-02 -4.7443087231079095e-02
      1.6306585580573856e-03 1.0808047992719817e-02
      5.8444377190289103e-03 1.0077331254624584e-02
      -9.3764604065678138e-03 -3.4426561363320736e-02
      1.3029477409045972e-02 5.3853432327814806e-03
      -2.8762841083884608e-02 -2.2117735604131779e-03
      -3.4589974242233722e-02 -2.3494506821029443e-03
      -2.5287332219694914e-02 -1.3629805249441251e-02
      1.4298440994470946e-02 -3.1585971255658259e-03
      -2.0355770160185593e-02 1.6963920245387815e-02
      -3.6445976239397611e-02 -1.2838518369127083e-02
      -6.4642145290341752e-03 -1.1573372495681569e-02
      -2.1619980814280640e-02 -1.1364529238833358e-02
      1.3669417241200030e-02 -1.5666450273681621e-02
      2.1448108083732514e-02 -3.6365406883320919e-02
      -1.4796202505666406e-02 3.9590022097139459e-02
      1.8445316652905015e-02 3.3872987187601165e-03
      4.0248494359360745e-02 -2.3499467707179644e-02
      3.9802435469720322e-02 -1.6315115255940978e-02
      -1.9864011924156139e-03 1.4521910848344520e-02
      -1.7598655660109621e-02 -5.0472837795810929e-03
      5.1402843947007690e-04 1.8598802074698037e-02
      -6.2654635660123860e-03 -3.9113587176036461e-02
      4.6857760086885707e-03 -1.4236684415069509e-03
      1.4933133775080706e-02 3.3025254535386440e-02
      -2.4304700035843795e-02 -2.3203918297291900e-02
      5.2260504718096984e-03 2.0249526263685154e-02
      1.2365345154057397e-02 1.3907976239747323e-02
      -3.2003480558857295e-02 -3.0549911813556364e-02
      -6.6325928444805242e-03 1.0841160986002997e-02
      2.9439513981473302e-02 -4.2467341189957659e-02
      7.3032267549763092e-03 -7.3152956405672853e-03
      1.2918371486146999e-02 6.6733440996134532e-03
      1.2680359768966976e-02 5.2988654994435606e-02
      6.5281054598507397e-04 4.6247576239145972e-03
      -4.1939073871361580e-02 7.1508422656280622e-03
      1.0192379051941999e-02 1.1126313185464840e-02
      -8.5409377440213239e-03 1.3368149395355137e-02
      -3.0061862923035400e-02 -1.1247549033718962e-02
      1.1925861463839218e-02 6.8664436481666183e-03
      5.9899932284496991e-03 -1.6272392508555816e-02
      1.8980836477406598e-02 -8.7460574005577638e-03
      -3.7751219795131082e-02 2.5645881368046759e-02
      1.3540861873841317e-02 -5.2553536914366336e-03
      4.2418985006150572e-02 1.9581826191372914e-02
      5.3529657625582830e-02 3.1806300186364669e-02
      5.9603759099665948e-02 4.1312146665771744e-02
      -5.6241602643250725e-02 1.1648466858681129e-02
      -2.0988332593147814e-02 6.4901725982968736e-03
      -6.0590539523464597e-02 6.6218084712899514e-03
      1.2088681137054608e-02 1.5653538804435034e-02
      1.8410619748122310e-02 -1.1110184930291259e-02
      2.2358729898187060e-02 1.5477957516282588e-02
      8.6359519936748709e-03 -8.4494577702330168e-03
      5.4451660174367811e-02 6.1596921055179395e-03
      4.1788450944311148e-02 -5.8249545250317447e-02
      8.0793567829141617e-04 -4.3597419517769583e-02
      1.4264505616240548e-02 2.4103288211868738e-02
      -1.9117423094499643e-03 -2.2856720052695394e-02
      3.8993467591406435e-02 9.4393934109155940e-03
      9.7797329817891110e-05 -5.7721191628056249e-03
      -2.3841407516794012e-02 -2.0081451815784503e-02
      -1.3958264697099428e-02 2.5874373327116545e-02
      1.3354948850949361e-02 -1.4237600915875169e-02
      1.7164253517345858e-02 2.8117187029606045e-02
      1.0386038530321070e-02 1.8898173729769822e-02
      2.0547890134876511e-03 -1.1558469466782469e-02
      1.9633809171815567e-02 2.6245096159413096e-02
      3.8707160085252663e-02 3.3486367272958908e-02
      4.4875361838393316e-02 4.7259655417374218e-03
      -1.0127040715520830e-02 1.2848868518276916e-02
      2.8675156075428289e-02 2.4777845199314440e-02
      -1.0562773833905064e-03 3.6404227359431267e-02
      -1.2023863187852760e-02 2.5301452900719171e-02
      -1.1717036585010374e-02 -2.1293065154980445e-02
      -3.1717943501146553e-02 -4.5078049800173624e-02
      -2.9500021880618850e-02 4.9157495131112443e-02
      -3.5657573593861659e-02 -2.0092309972748378e-02
      3.8001044740366479e-03 -1.3201163336551234e-03
      2.5226891316023441e-02 -2.0605740544389250e-02
      3.2993071046276030e-02 -4.3653835241231204e-03
      5.0208788612129875e-03 -3.6794139224501218e-03
      -1.2102281613617642e-02 2.0246850616650377e-02
      3.6492360219324969e-02 3.3862199400344205e-02
      -4.1884533444214958e-02 1.1119046266253793e-03
      -6.2227392047806106e-03 1.6530165926454458e-02
      -1.5326177149537106e-03 9.6269048451050609e-03
      3.7439948345540527e-02 2.7787856085106109e-02
      -3.2550409094387360e-03 -2.8302254177394022e-02
      1.8094381111428985e-03 -2.7642610302143068e-03
      -1.0920932460636716e-02 -2.8299184765484427e-02
      -1.1221029229354902e-05 7.2173761730046923e-03
      -6.7204008461548056e-03 2.5188832752495550e-02
      5.0343986019182208e-03 -3.1544987716753251e-02
      9.4766411784415090e-03 1.4344895191904863e-03
      4.4877230866756414e-02 1.5537746362706063e-02
      4.1274086792964668e-02 3.2688836497659385e-02
      -1.8703707514487401e-02 9.7869871336089924e-03
      -2.9955384890366181e-04 4.4059163160536463e-04
      -4.0470369444863236e-02 -4.9883341394768551e-03
      6.9954718173744291e-03 -3.1981532980640416e-02
      2.0982888447217837e-04 -6.2845101761558027e-03
      9.1794340574277537e-03 -5.6426475116442285e-03
      2.9300155714208410e-03 -5.0794379637346728e-03
      2.7161570633005356e-02 2.2335449402819136e-03
      -3.8458388790202143e-02 -1.6627399344025039e-02
      -2.4240239634293777e-02 -1.7907029722318040e-02
      -2.2103899445863415e-02 -1.3778479084775106e-03
      -2.5058187125033490e-02 -3.1444393903545954e-02
      1.1317577416413540e-02 3.2687816172586939e-03
      -2.1741618920008178e-02 6.8451581072879880e-03
      -3.4439851597032390e-03 -1.7143212335069195e-03
      -2.0045278717317123e-03 -1.5522115984203765e-02
      -2.1805898628776865e-02 9.7799978578221574e-03
      -1.0400808932016396e-02 2.6983235757426033e-02
      -2.6067508994663184e-03 1.6874930457287236e-02
      -2.1852087249235829e-02 -9.2881014353524052e-03
      -2.5260016958648702e-02 -7.1306036963264194e-04
      1.4851298353283785e-02 3.4781601104362497e-03
      3.4290691472068612e-02 1.5924125276573910e-03
      2.1451815893932377e-03 -9.1415498779890397e-03
      -5.6937640664460904e-03 2.4591780783981207e-03
      2.5126311543235357e-03 5.6587767117241370e-03
      1.2141564434607939e-02 2.8508166849233896e-03
      7.7408561824298186e-03 -1.8123665277400759e-02
      3.1430242454217709e-02 5.3115320061827296e-03
      -8.1180924976619259e-03 3.8293618401447356e-02
      -8.3460724413398232e-02 -8.9991989492157649e-03
      9.4617129997045610e-03 -9.0118870249195262e-03
      -1.0818691131284235e-02 -2.0806200918177937e-02
      1.3092689780171841e-03 1.0921686835587091e-01
      -4.1344631277941600e-02 -2.2353728511702975e-02
      -3.3313587650254356e-02 8.0418436387821597e-04
      -7.0169576152063857e-03 7.3090127419202705e-02
      -2.3087042410994612e-02 2.4863533579392218e-02
      -1.5180071803760476e-02 8.5604530907820362e-04
      -1.4371768679334947e-03 2.2199711711185864e-02
      1.7474500739621084e-02 -2.0399016713249386e-03
      -1.0787070637060251e-02 -1.2085339678463472e-02
      1.8687408807644006e-02 -4.5331412760528040e-03
      6.3508677915954923e-02 -7.1842047275215870e-02
      5.1360745050344860e-02 2.2212219880289881e-02
      -4.9695752792823775e-02 6.3540018919127778e-02
      1.1702053592861630e-01 1.0235931906311339e-02
      7.4141975665965920e-02 -1.4196997865973343e-03
      8.4469505496330061e-02 4.0530053751840898e-02
      7.5040918073480026e-02 6.6286304301409013e-02
      -1.1427883210981736e-01 4.6912475188471258e-03
      -5.2630509551670153e-02 1.0915345322169664e-03
      -8.1556474129442294e-02 -3.1816880352933154e-02
      1.9004785860490019e-02 -5.0814916318414859e-02
      -2.7462045071824908e-02 -2.7985865057342627e-03
      -1.7621789464417829e-02 4.6056204344751356e-02
      1.1796166695043735e-03 -8.0939888972172171e-03
      3.6306987321009327e-03 -2.1695771027037500e-02
      2.9250201468860770e-02 -7.8599577436745477e-02
      -3.3588709650129230e-02 -3.9028867530764261e-02
      -3.0054688001232934e-03 -2.7827502006361920e-04
      1.2786810242870145e-02 -4.8598053168330935e-02
      1.3223364515044447e-01 4.7553428084188831e-03
      -4.4732851357666505e-02 4.6822924385705927e-02
      -4.9221667876090412e-02 -4.7257230064747441e-02
      -4.1348327877962249e-02 -4.6680277467167396e-03
      1.1344524243097691e-02 2.4259891012027835e-03
      8.0413065757576757e-03 7.4457923999210154e-02
      -8.2087678583699832e-03 -1.4816147748006632e-02
      4.0258812644451691e-02 -8.7158607408348313e-02
      -6.2604025486613979e-02 5.2592376262024794e-02
      4.7951316678792592e-02 -3.6258230123546425e-02
      8.7559131317342567e-02 -1.9269670656133744e-02
      -3.4176101900361688e-02 -1.7349197172584603e-02
      4.5064485791228591e-02 1.0941567597353237e-01
      1.1607442029289410e-02 7.5519703246741399e-02
      -1.8357125920827361e-02 4.9063395778386323e-02
      5.3120939646924936e-02 -7.2213575397302388e-02
      -3.0244539675345291e-02 -7.7297818948131453e-02
      -5.5693727647191500e-02 5.5299900645540412e-03
      -9.1853410495078031e-02 6.1208178124692661e-03
      -7.8944789518009730e-03 -5.1470557388971279e-02
      6.2430922328758451e-02 -1.1591378055729569e-01
      4.6029003325990261e-02 -1.4685014209242805e-02
      7.0540755301961411e-02 -5.3824639241684943e-02
      -6.5917287180749726e-02 5.2412355979660201e-02
      7.2343545984573557e-02 -7.3719620918396029e-03
      -2.7991099025451802e-03 4.2467533828742902e-02
      -6.0246176555004340e-02 5.7963901031061686e-02
      -1.5886309093339612e-02 6.8951242655259509e-02
      5.0907333460491977e-02 4.9908486538359151e-02
      -6.8730830082049069e-02 -6.4707265873329201e-02
      8.9038276469835670e-03 -2.2153112567066740e-02
      8.5750772502156083e-02 -8.4299840203325954e-02
      7.8448230803285376e-02 7.3110380265346331e-02
      -4.4558426814121428e-02 3.8467948936420818e-02
      1.1518768392596296e-01 -2.1675641773041463e-02
      1.0009647258614648e-01 6.8279679762963869e-02
      6.8562247195552831e-02 8.5142073972590424e-02
      4.5822499097770246e-02 5.6039255191651392e-02
      -1.3433245945382583e-01 5.5639859007145902e-02
      -4.0940110000203804e-02 2.6937678707498473e-02
      -6.0785771845522446e-02 -7.8101738641496304e-02
      -1.0031086436831801e-03 -4.0986096685517316e-02
      -7.0344821402254815e-02 3.2703382398784321e-02
      -7.6544134361990743e-02 3.7752028966722084e-02
      3.9627259793223159e-02 -5.5523315638933153e-02
      -8.0005697425436353e-02 2.0075746431202364e-02
      -5.6775916170784563e-02 -6.6848470937853913e-02
      -4.4758845281488602e-02 -6.3485125832384998e-02
      -6.6026714187624888e-02 -4.8876165634329102e-02
      5.4492376838206583e-02 -5.4525514169691529e-02
      8.9430863082469073e-02 6.5510157853375411e-02
      -6.6267295242099067e-02 4.0318817541582716e-02
      -4.3451841537288649e-02 -6.3684686469514390e-02
      -6.8492135149181760e-02 -4.4091983415283455e-02
      3.1830668782258945e-02 -3.0109168087416704e-02
      4.6881533306993114e-02 8.1520129056577864e-02
      -5.2905994722214203e-02 5.9753548727337444e-02
      8.8565417747635919e-02 -9.7469893468613247e-02
      4.6453941583093723e-03 5.8055086919777447e-02
      5.3142534241447763e-02 -1.0728280703524801e-01
      1.0258459066730091e-01 5.7792957339105742e-02
      -5.7396735650765375e-03 -5.8735959247725768e-02
      4.7862982098446485e-02 3.2480536041164930e-02
      -3.8740343861033130e-02 9.9610259702558157e-02
      -4.3769308036056734e-02 3.8299301231382442e-02
      1.0287699239700111e-01 -6.2762306336562046e-02
      -6.7041117945274162e-02 -4.3312368621583934e-02
      -7.1033997762412482e-02 -6.0522607352509316e-03
      -4.1697433668868453e-02 3.9349782261683723e-02
      -3.1442915032793506e-02 -2.0925528006445850e-02
      6.4964398033785356e-02 -9.1802912079492732e-02
      7.0853871401820728e-02 -1.5697528173898738e-02
      -8.5965724912185557e-03 -6.5887443995530870e-02
      -1.0599702432282455e-01 7.8380459032856564e-02
      8.5884906667583596e-02 -8.5726540744854498e-03
      6.6627326029472730e-02 7.2172784027742506e-02
      -7.9643492671477509e-02 7.8498782400127906e-02
      3.1212191270116100e-02 7.3065161462668768e-02
      9.1104868709016767e-02 8.4571638117484166e-02
      -1.0653485737801252e-01 -8.1056609341029845e-02
      4.9683584060844221e-02 -3.1805186060156795e-02
      6.3286733643952958e-02 -8.0638545100783582e-02
      5.3121935855742056e-02 2.5299313600461698e-02
      -9.6230275440833971e-02 8.1061070141868655e-02
      1.2358000216435991e-01 -1.8997023663840908e-02
      8.5198612656118416e-02 1.0315461517727517e-01
      8.0930841443806870e-02 8.2123436014336387e-02
      1.0894986974904575e-01 6.3309704368020109e-02
      -1.1332870179651273e-01 3.9484010517058216e-02
      -8.1097388052433800e-02 6.9078246262748472e-02
      -7.1342093068610515e-02 -5.0141160822247961e-02
      6.3610060336429713e-02 -2.4182739778987494e-02
      -3.3553295110791678e-02 5.5147253345072596e-02
      -7.5630269877907899e-02 8.6457533853203317e-02
      3.8051285943823773e-02 -7.6899092851122633e-02
      -7.0331866269345636e-02 2.5154227847095575e-02
      -1.2541582251987735e-02 -8.9656274972383987e-02
      -3.6699909351395839e-02 -6.9464363525976638e-02
      -2.6775477150649693e-02 -5.4869715377030455e-02
      8.8977401841814338e-02 -8.5516224914195207e-02
      5.4218177769560338e-02 6.4433075198127535e-02
      -6.4500040159543401e-02 1.9581203738308569e-02
      -8.6007427597238659e-02 -1.0533808200797698e-01
      -5.3091345068347187e-02 -2.4054405499244064e-02
      6.9606381899589898e-02 -5.6988201920991917e-02
      7.0725547563590591e-02 5.9226755736942548e-02
      -4.4958142112607943e-02 7.3238350878479477e-02
      6.1515942984222839e-02 -6.6445724957978874e-02
      -6.9081945692934563e-02 4.5018168429466196e-02
      9.7497740184787560e-02 -4.6369809148463795e-02
      8.2020525938001784e-02 8.6130091263442246e-02
      -7.9931175022121756e-02 -3.7724777033411004e-02
      6.9770692290812716e-02 6.4282597995921786e-02
      -6.0308101382731828e-02 8.7481155185174825e-02
      -5.4600384050911860e-02 5.3203443838762764e-02
      2.4916283919758281e-02 -4.4122036667932532e-02
      -7.5999898916204081e-02 -6.4357379307450530e-02
      -6.2183047967962764e-02 9.8153063441452054e-02
      -8.5750592322447458e-02 3.9887689018515235e-02
      -2.8991864100735929e-02 -6.7734631573213341e-02
      7.7871164261169426e-02 -1.0127774647579917e-01
      8.7844777893286999e-02 -6.9248119323623139e-02
      -2.2257446005857641e-02 -6.0163738853980422e-02
      -5.7018472479827872e-02 5.2832950332027985e-02
      7.6815086166764662e-02 3.4087305849137224e-02
      4.2158796063791915e-02 1.0939218843295245e-02
      -1.0400510896843394e-01 6.5218583260914065e-02
      4.9123112997174007e-02 4.3739168511622732e-02
      7.9774503735540375e-02 8.0279601147041510e-02
      -5.1614089988838090e-02 -7.5756371655638963e-02
      5.0897889138685225e-02 -3.1069392808309289e-02
      1.6613709511490271e-02 -5.6173661624326882e-02
      3.3419450755074180e-02 -3.6358873074339468e-03
      -6.5365621726378303e-02 4.0271182586514229e-02
      1.1153292847462069e-01 1.9136620602148019e-02
      6.5343025889315037e-02 1.2280135313477328e-03
      5.9958657621340831e-02 4.0512840613200339e-02
      5.1229776960778822e-02 6.6599454603688518e-02
      -1.0878367755509141e-01 1.3575626889034223e-02
      -6.4815538530472325e-02 1.6519803327493778e-02
      -7.1116751455909524e-02 4.9175319323412564e-03
      2.2184551279025792e-02 -1.4322294505772840e-02
      6.1081593728537819e-03 1.1956154287232591e-03
      -1.4763785606923788e-03 2.9462432741402977e-02
      1.9740649070759266e-02 -2.6581427316517955e-02
      1.1342121665935258e-03 -1.3201241457822097e-02
      5.6988811725295616e-02 -5.9311976242741024e-02
      -2.4009171574925287e-02 -4.7140350972901243e-02
      2.7334291342048796e-02 -1.8099115691885503e-02
      4.0944735939303305e-02 -3.7201359157014689e-02
      7.1977181687437261e-02 5.4857714982216414e-03
      -2.6926518021207369e-02 2.9179738882089017e-02
      -4.7567468889480873e-02 -2.8897388351089816e-02
      6.9793747431347547e-04 1.9602226734847433e-02
      2.5513441559190889e-02 -9.8485323724130016e-03
      5.2739629939341309e-02 5.6948567847186334e-02
      -2.3250523111791635e-04 -4.0056388315515785e-02
      5.3348162885167747e-03 -6.4601392025808266e-02
      -2.4448607134487549e-01 4.2525018649412744e-02
      7.0388377530789678e-02 -1.3788460781904464e-02
      4.8454308564849245e-02 1.6392897503972612e-03
      -3.9014000639747158e-02 4.3096014059083691e-03
      5.7158768404214161e-02 2.2950577682969358e-02
      -1.6253006694097707e-02 7.2666893952077163e-02
      -3.5359902417975854e-02 4.5096067085804818e-02
      1.4433925651083054e-02 -5.5044641509644880e-02
      -5.6126801480129586e-02 -2.4562054194467532e-02
      -6.5375897942870298e-02 3.8037564205009165e-02
      -5.8678815301243484e-02 8.5186489849668930e-03
      1.1838996405407840e-02 -4.7989935581608884e-02
      6.0368307080464291e-02 -7.9557595280086893e-02
      4.7167010633423052e-02 -1.6265332131858035e-01
      4.3142175703381448e-02 -3.4831691213715515e-02
      -2.5732966705766681e-02 3.1507688464367842e-02
      6.0618892012293007e-02 1.1760345671575492e-02
      6.2036170029350218e-03 -4.0962242693591390e-03
      -5.3965307302314629e-02 2.4502319683445711e-02
      -1.0342703838989258e-03 5.0592056721594995e-02
      8.0123551754235078e-02 4.0968343909556504e-02
      -5.6105816898065868e-03 -4.9414637832850293e-02
      1.4061139399880787e-02 -5.6232929657543378e-03
      -5.2636218442091418e-02 1.2317360450003489e-01
      -4.0419995952566373e-02 -8.3297191673131522e-03
      2.7130586369728052e-02 -7.7901889188249474e-02
      -8.6929230926170956e-02 1.1515380774202668e-02
      -7.8133634167604743e-02 -7.7307957483830625e-02
      -6.5632920597471403e-02 -1.0089169375674900e-01
      -7.6297626568947327e-02 -3.8487297819987019e-02
      5.7908691318106456e-02 -4.6730253604035293e-02
      3.4767493502712486e-02 -3.4995820911607571e-02
      4.0044950535650166e-02 1.4199026280007755e-02
      -3.7921142043233186e-02 9.6148801173821415e-03
      1.1680959703489533e-02 -2.6789923194699253e-02
      2.5673862800177159e-02 -2.4138777614037970e-02
      -1.1296613612712888e-02 5.5921494415479757e-02
      1.1554494889943662e-02 -1.6799822301072180e-02
      -1.7056325177188955e-02 1.4211268180734607e-02
      1.3988055942211490e-02 6.3533968849218102e-03
      -6.8120579697494897e-03 2.4097125158724527e-02
      -4.8934095006931563e-02 8.7279290515833829e-02
      -3.5526749826923269e-02 -7.1494342488645529e-02
      1.1903455994288419e-01 -7.4076263332887539e-03
      5.9547000138847950e-02 4.1121275254149166e-02
      2.9835597150443711e-02 1.3737479895705874e-02
      -2.8602910954674668e-02 2.5410829497089782e-02
      -4.0057231485460830e-02 -3.3716226557794562e-02
      2.2422534755922860e-02 -4.7017711597678646e-02
      -5.4193046532306541e-02 5.3573854711462678e-02
      -4.7276838845527636e-02 -6.3798659325772153e-02
      -5.4223627946176148e-02 -2.9257195307099616e-02
      -1.2469786584296871e-02 -5.6037172762017938e-02
      6.1278974667175752e-02 1.8839058343447464e-02
      -2.5952110986441512e-02 -7.1895906592514588e-02
      4.0723274544260356e-02 -8.4470354237025064e-02
      1.7755392330813892e-02 -2.3857400725005636e-02
      4.9319284460539389e-02 3.0996680078700663e-02
      1.3805360081227390e-02 3.6045836078179738e-02
      3.8032372656839605e-02 -2.3112482069318836e-02
      6.9137666535314196e-02 -3.3809195216276511e-02
      1.7418205839545588e-02 1.3994820197728014e-01
      -3.7533138293106873e-02 8.7787565688583966e-02
      -7.8723725629890579e-02 9.2031285929048731e-02
      -3.8933909182806092e-02 2.3642696193890762e-02
      1.9141716755558549e-02 -4.0034040065610295e-02
      -2.3340193670680923e-02 -4.6207309312987485e-02
      -4.0754279100780845e-03 5.9567184262490839e-05
      1.1825645282008795e-01 -3.0299029538415442e-02
      -2.7355353404643398e-02 -9.9286221368918154e-02
      -4.3815575923868678e-02 -4.1188547479010296e-02
      4.6038379767850149e-02 5.0012929205435194e-02
      -3.5646723730341771e-02 1.1907100812016217e-02
      -8.0191638958349493e-02 1.1093737429925836e-01
      -5.4142963124020109e-02 -8.3230363406399957e-02
      3.2358934078898047e-02 -7.3624635501573027e-02
      -9.6982644363166143e-02 4.4170523826419825e-02
      -7.0751713587601031e-02 -8.0076030916019822e-02
      -4.6280396578698188e-02 -1.0526718924164571e-01
      -7.5857223406952667e-02 -4.2366001420544426e-02
      4.7667939795646146e-02 -5.9423711584452053e-02
      3.8799171554458230e-02 -6.6677388186342154e-02
      -5.7986588108498771e-02 8.3183290594124576e-02
      -3.9765996106370820e-02 1.2400565577161070e-01
      7.4992231041299012e-02 -5.8081875387342795e-02
      9.0645550727733532e-02 -6.3802045986168288e-02
      -1.5015194549267813e-03 7.3104914696663109e-02
      1.0207794828218446e-01 -4.4467573216964269e-02
      9.3616321683618248e-02 6.5440019452401424e-02
      7.6666645890193105e-02 5.2464344536542390e-02
      8.9443140394385834e-02 7.4603810154192068e-02
      -7.1977024325398736e-02 8.1942565482028343e-02
      -5.2004887215370811e-02 -8.7230302230582812e-02
      1.2197499188022304e-01 -3.0586196401601023e-02
      6.0698336282330921e-02 7.0567967424697245e-02
      3.6287198914263415e-02 4.2601528657116985e-02
      -5.8761310372135521e-02 5.4388404019480030e-02
      -5.7970470616271447e-02 -4.7634151799567072e-02
      7.1883732032600040e-02 -4.9398047563325082e-02
      -6.5922567010451433e-02 6.5358969465796515e-02
      -3.2061926246860016e-02 -6.1473368689786895e-02
      -5.8120412426996983e-02 1.0853728736755683e-01
      -3.6494973267080413e-02 -6.8069210552081164e-02
      5.6252537904095436e-02 5.2529315271761801e-02
      -2.6934496484899848e-02 -7.3176933758876281e-02
      7.2843954261418403e-02 -8.2876961252495968e-02
      1.3064357558291296e-02 -1.6926571966215293e-02
      -1.0799089058982290e-01 2.0022425128361072e-02
      9.0166021337781010e-02 4.7865307094616998e-02
      4.6733365279497945e-02 5.0055512044767840e-03
      1.6533519945074814e-02 -6.6617334719831611e-02
      4.3065787373217368e-02 1.1467962214658063e-01
      -4.3854869573612468e-02 1.0489808467702502e-01
      -8.1084337435299275e-02 4.3875073791302566e-02
      -7.3198446090287535e-03 8.2869729040271733e-02
      7.5869762745339311e-02 -5.6709146803734824e-02
      -4.7418120866056200e-02 -8.1582161709326181e-02
      -8.7375122057147578e-02 -4.9369276778797863e-02
      1.1154228303917611e-01 -7.9367935603925271e-02
      -6.4364827426156943e-02 -9.4753160474529127e-02
      -6.4051823510277398e-02 -5.0843370017653371e-02
      7.8802022206477376e-02 7.0232700447519072e-02
      -7.1386079408382333e-02 4.4273579364280270e-03
      -4.5023880197775631e-02 5.4978395484299211e-02
      -3.5496274083257777e-02 -3.6533666118807748e-02
      -1.7169615047324116e-03 -5.9068349565485692e-02
      -9.1112478440794117e-03 -1.4712237709990075e-02
      -9.8735006259266747e-02 -6.0505064535049169e-02
      -4.6699901470222169e-02 -4.8244193759557810e-02
      -4.9534029397002542e-02 -1.5154810038376492e-02
      5.9313844225640554e-04 -2.4014108388568317e-03
      1.3994558435757297e-02 -2.0879992192825624e-02
      1.9839737961682154e-02 3.6173035281405891e-02
      1.4147615235275978e-02 2.0988492623266360e-03
      4.5017433666713576e-02 -9.8381972826622408e-03
      3.5352332599630089e-02 -2.7993631218440777e-02
      1.5453864666567447e-02 2.0717792312308081e-02
      3.6531068246570202e-02 -8.5009376156218782e-03
      8.6654456326394035e-03 1.2951404233781194e-02
      -1.3486255455128585e-02 1.5155732923189379e-02
      2.8076655203596822e-02 1.6427922728094478e-02
      -8.5717755284064959e-03 4.7830715587509079e-02
      -2.3654621961006820e-02 -4.9406778936829071e-02
      6.2988090483806852e-02 -2.3331104403094442e-02
      4.3797776054838644e-02 3.1167383884368908e-02
      3.2318259760635668e-02 3.7537519998924400e-02
      2.6280061987489223e-03 1.2799831643806417e-02
      -2.6210051536574498e-02 -3.9796195217398356e-02
      4.3306777904386307e-02 -3.1375475030736767e-02
      -4.6001785620432001e-02 2.5655074386298240e-02
      7.1439198685780466e-03 -5.5384407645514146e-02
      -6.8933021719921285e-03 4.3284767578602196e-02
      -2.9406471486414527e-02 -3.6694707827286101e-02
      1.1292487967888005e-03 3.1040742610805448e-02
      -1.6472351720333355e-02 -4.0459906771395701e-02
      2.9566089827267644e-02 -1.0532179977062689e-01
      -1.7076217067141211e-03 -2.1207323291757379e-02
      -7.4340530242317043e-02 1.4277019053021985e-02
      1.4719044087077209e-02 6.4430467707376916e-03
      2.8737935171480877e-02 3.6783491006359935e-02
      1.7924987269193029e-02 -2.0061747757705067e-02
      2.6439982487751292e-02 6.6954244948917593e-02
      -2.7946582789291758e-02 5.0369933301254347e-02
      -3.2956150916545003e-02 -1.5337154812122148e-02
      -1.9038731595064091e-02 1.6239110751448526e-02
      3.4164816499457761e-02 -3.4517038996810571e-02
      -2.2226075165578011e-02 2.3452749573520719e-02
      -2.6252563573308775e-02 -6.0441230971495452e-02
      4.0862647498643920e-02 -4.0195206411247970e-02
      -7.3756032229508632e-03 -4.5398349707185662e-02
      -4.7723758173290845e-02 -4.0362441093036078e-02
      4.0810390609247280e-02 2.3828314089946491e-02
      1.6728338236773528e-03 1.5080568529915177e-02
      1.3098089265041227e-01 -8.1215045089310892e-02
      -1.4861819649501893e-02 3.5573740519016461e-02
      -1.3472153357328800e-01 3.0331703671561416e-02
      2.1846896217154788e-01 -1.3954998804348070e-01
      -2.5840549961458437e-01 2.3963222138727841e-02
      -3.2670374111149564e-02 7.9892068911413761e-02
      4.2876134281889737e-02 3.9051152886410505e-03
      -6.2845006416596171e-03 1.0311767462345450e-01
      -4.5662809051481824e-02 9.4362906666957125e-02
      3.6989652222129900e-03 -5.7413032464776685e-02
      1.5389427626374536e-01 -4.3744009527440425e-02
      -3.3816940936050324e-02 4.9510794553900520e-02
      -3.4773506374884536e-02 2.4538377119644773e-02
      6.4646175719119084e-02 -6.5994793095985632e-02
      -3.4717940275228364e-02 7.2146813325009607e-02
      -6.5865742347764558e-02 -5.2749153775750297e-02
      -5.9553333889068784e-02 -5.3264008076154522e-02
      -3.8525226249244274e-02 -2.7434351265684182e-02
      1.5711311467859140e-01 -6.6475107181124232e-02
      -9.1239347932224449e-02 5.0558742211703638e-02
      -1.1573121009979695e-01 -1.4762663335900284e-02
      -3.2538811891250394e-02 -3.9646693324757190e-02
      -5.4470383555403880e-02 -5.2714575784294615e-02
      1.2635251566714426e-01 -1.0249274179455799e-01
      2.6983727697481679e-02 -4.4834534738273174e-02
      -7.6072141646967545e-02 1.1161884912720027e-01
      1.1262709127844556e-01 -1.9078809915183834e-02
      2.6417730541950546e-01 -6.0547586532834638e-02
      1.2523426409429633e-01 1.8777135769605914e-02
      2.6508438317057133e-02 8.8006504914418957e-02
      -1.5249901983285766e-01 -5.0021412367388503e-02
      3.0743572466564995e-02 1.5497228224653678e-01
      -7.6291594012458275e-02 -2.4749114707546135e-01
      -4.0307829809719767e-02 -7.0791273043569018e-03
      -2.7020176595152080e-02 4.8877526330109888e-02
      -1.2433549154132348e-01 4.3567638113739993e-04
      8.7990231141990213e-03 1.8523712525439390e-01
      8.6646836450357256e-02 3.9252096963546486e-02
      -1.2016081761656910e-01 -1.5131347962352376e-01
      -1.6245111462379379e-03 2.4401279128417636e-02
      6.6212734047124078e-02 -2.8315483234904382e-01
      -5.6624098135610069e-02 -2.3520226197899494e-02
      2.2397689193186146e-02 -1.1477447416835644e-02
      6.3209144518378238e-02 7.2523505219638698e-02
      5.8021076717338908e-02 2.9114718496529277e-02
      -1.6610834986170359e-01 -1.4970076544021578e-02
      5.9127310918005591e-02 6.2143022300511816e-02
      -8.0059888404933471e-02 1.5323476498806349e-02
      -1.2178424801668991e-01 -1.5799457849960438e-02
      8.5050501598552306e-02 -8.2929661383865632e-03
      1.2853414128840837e-01 -8.4405105852431606e-02
      -1.8578482701157962e-02 2.7223499781189219e-02
      -1.3288811234630690e-01 2.5609336989032262e-02
      2.2626087817471807e-01 -1.4026841623332961e-01
      -2.5909705843711006e-01 2.2837225209457659e-02
      -2.6537493929421528e-02 8.3654422646819340e-02
      4.3683400918072671e-02 -6.6310456204189865e-03
      -6.5651335689198955e-03 1.0790788709553750e-01
      -5.3006265186677497e-02 1.0876768744733303e-01
      -2.6933974349008720e-03 -6.7209369161419133e-02
      1.5521594493695212e-01 -2.8100938774914232e-02
      -2.2776753814433521e-02 4.9006021445432466e-02
      -2.3784977324382353e-02 2.5247276035536045e-02
      6.4964134397681395e-02 -6.6499930425794412e-02
      -4.1435191557219475e-02 6.1081770782682475e-02
      -7.4816589825333998e-02 -6.4235386390743388e-02
      -6.5647336431197523e-02 -5.4024810023983329e-02
      -4.4086722958245769e-02 -2.9597296560359442e-02
      1.5712622423518660e-01 -7.9559057384958706e-02
      -9.3107266947651229e-02 4.8596401240852363e-02
      -1.2114552298062695e-01 -2.7007188870142224e-02
      -2.1229272001756345e-02 -3.8282689283598965e-02
      -5.1886891358594686e-02 -6.1964503715144094e-02
      1.2781385462580724e-01 -9.2994847659319924e-02
      3.9287388929351616e-02 -4.6165654229813217e-02
      -7.6922880896874976e-02 1.1617827493298868e-01
      1.1518000996935933e-01 -1.7400451139735915e-02
      2.7395200470970998e-01 -6.4303423627222425e-02
      1.2426321279056955e-01 1.1522347543643405e-02
      2.3446516105408457e-02 9.8941835891040469e-02
      -1.5243376495767774e-01 -4.8115730125199867e-02
      3.5635619518352112e-02 1.6163868714803029e-01
      -7.3029611641106079e-02 -2.3680801874758775e-01
      -4.9676383554657207e-02 -1.7563305445193928e-02
      -1.9321119238651627e-02 5.7678579119706808e-02
      -1.2798720986979256e-01 7.5241064409447070e-03
      1.2741866383712734e-02 1.8693729540391218e-01
      8.5478846047396917e-02 3.4602582019247714e-02
      -1.1443934124263831e-01 -1.5095490940961270e-01
      3.8632052242175805e-03 1.6897585325464613e-02
      5.9611862544279984e-02 -2.9228634104364648e-01
      -5.7976357655565990e-02 -1.1465651013554314e-02
      2.2750923474873876e-02 -1.4622286049295328e-02
      6.6310999085081743e-02 6.9038369708203123e-02
      4.9413938692842371e-02 2.9541211623707920e-02
      -1.6429610138629028e-01 -4.8407758017599296e-03
      6.6572041798002898e-02 6.7042467948228990e-02
      -9.1828185592761943e-02 2.3210358168228241e-02
      -1.1784358113657212e-01 -2.1484960435481169e-02
      8.5335987546274680e-02 -1.7256816004031259e-02
      8.6498010456559610e-02 -5.3453959610002107e-02
      2.1823257298919676e-02 8.1796810484049243e-02
      -3.3260581644897216e-02 -4.2223822782570294e-02
      6.0196031852477017e-02 -2.0289843630899605e-02
      -5.2820113058077864e-02 -4.2171881738389899e-02
      -8.7990472084380517e-02 4.8149644004978766e-02
      -9.6971338931850018e-02 -6.8629489383980960e-02
      -1.3153498206070523e-02 6.6283239676118211e-02
      -4.1870738265616082e-02 1.7736196122854021e-02
      1.0372295588488875e-01 -7.4482588388481333e-02
      5.9095111520452315e-04 -3.6626351668595424e-02
      -6.7345510624983215e-02 7.0709086385242190e-02
      -8.5149254916712463e-02 8.2287168485605536e-02
      -7.4408244420327962e-03 -5.3895035472465817e-02
      -1.0101009197014199e-01 4.2425966218989808e-02
      -5.1629493694097833e-02 6.2257943319159785e-02
      -3.3633723293320671e-02 3.0409505279192641e-02
      -7.4337868136453600e-02 -9.2190154945980540e-02
      5.5162322547377143e-02 1.1302427985043797e-02
      -4.3184357121192590e-02 3.0677347467511294e-02
      -5.9741082903451287e-02 4.0649308906557637e-02
      -6.9068613662164203e-03 -8.1957216928321391e-02
      -4.6401805913021205e-02 -4.7319114246092017e-02
      5.4577354702522334e-02 -4.2327936441577514e-02
      6.4840209299335663e-02 -3.4687862198553084e-02
      -7.7665862422552620e-02 9.4560368533612396e-02
      8.2760537469524609e-02 -6.5358834401007107e-02
      1.1308693350447578e-01 -2.4675250572416759e-02
      2.1288856290742224e-02 -9.7610702357158990e-02
      -4.3564446163694447e-02 1.1288465798028643e-01
      -1.0830757693832595e-02 -6.0425601229799411e-02
      -1.5504189022139667e-02 8.4844693874964391e-02
      -9.0458727779876791e-02 -3.0717794488018021e-02
      1.7304780497370199e-02 -9.5732474887403538e-03
      9.4526217298753976e-02 4.8630280022676414e-02
      -3.8130474341307730e-02 -6.3837471282150948e-02
      -1.5894696554199086e-02 -1.9769789631069328e-02
      4.9001030752882861e-02 6.8300106845062186e-02
      -5.0609316409636632e-02 -4.1550092195393989e-02
      5.2201038191244865e-02 7.9448705411886797e-02
      4.8092865743490122e-02 -8.2860810200061669e-02
      4.7460934282704495e-02 -4.3475305865889532e-02
      -2.2124799301249810e-02 3.5030513355598369e-02
      4.3423017172706982e-02 -6.3598827521324799e-02
      1.1158518073801463e-01 3.8662579446233677e-02
      -7.3218821811051035e-02 3.3091217525111488e-02
      6.6669277729962673e-02 -1.1881824091749146e-02
      -1.3776433160169481e-02 5.3127909956625627e-02
      -8.9430916780874406e-02 -3.0135831042049879e-02
      4.6696711956254675e-02 -4.7895434619806727e-03
      2.7521217737359507e-02 -3.5223018076973048e-02
      -1.7048516625004905e-02 2.4391168124632684e-02
      -2.4221765573472269e-02 -6.4292490781818909e-02
      5.9031562086657816e-02 -1.2781576193244654e-02
      -6.5527456055746558e-02 -7.5791561860135290e-02
      -2.3565876725795597e-02 3.9643532829532251e-02
      -6.3761847590551979e-02 -2.4823912927687899e-02
      5.3935053776553991e-02 1.0200071558486424e-02
      -1.6067752237667966e-02 5.6350797647926488e-03
      3.4282032907755340e-02 -9.1864224502529908e-03
      2.9083465676707564e-02 -2.1854341800265787e-02
      -8.8769323398562635e-03 6.5875342083979013e-03
      -2.1316273109564587e-02 2.1735217045283674e-02
      -2.2351855336822681e-02 -2.7018194462837621e-02
      -2.2657030504881732e-02 2.1194992420458851e-02
      -1.8173317956352873e-02 7.2403488376350508e-02
      -1.9514676120302547e-02 5.1384097013631662e-02
      -2.7945227841957410e-02 -2.8516438010025524e-02
      2.7860790142300054e-02 7.6149296413050762e-03
      -3.5175462493798354e-02 2.6718399529648818e-02
      -5.0256200347540768e-02 -7.2820638837596248e-04
      9.9599209764625312e-03 -2.2642007859678044e-03
      -3.3503116275169745e-03 2.8341172089301329e-03
      2.2430351387996296e-02 -3.5153750471716007e-03
      1.8978111058321749e-02 -2.7064870345231654e-02
      -2.0255103410353609e-02 1.5642678864570235e-02
      2.0291199569283689e-02 -1.5215327263451843e-02
      1.7278119758131583e-02 -4.5899129036953541e-02
      3.0071416275049577e-02 -5.2964262432261135e-02
      -4.6045359926100579e-02 1.6291028816673478e-02
      -2.7245854625897847e-02 -7.8535180764848986e-04
      -4.5101004180244063e-02 -6.7547746625304340e-03
      -6.2558199582589836e-03 -6.7667699708662848e-02
      1.7746576986463616e-02 -2.0541446034252293e-02
      4.7243117177204530e-02 2.6390629019593877e-02
      -1.3401536081224252e-02 -2.0382092339589087e-02
      3.7510816661083565e-02 8.0229417767270599e-03
      5.9091894416294496e-03 1.2860874890617222e-02
      -1.1303581681978491e-02 -5.6344063205382579e-02
      2.5177301517148947e-03 2.9446951950011797e-02
      2.5137231347653034e-02 -5.9667930253668178e-02
      6.7944623597148059e-03 -1.6859297460280774e-02
      2.3114262807168710e-02 -2.4826217288052722e-03
      -1.3884701894256138e-04 3.0243850420394749e-02
      4.0235674377799492e-02 1.0365033433061058e-02
      -5.3781321781100129e-02 -1.9116579769213101e-02
      1.2965598286033171e-02 3.4933396076047264e-02
      -7.6646669941327863e-02 6.5877651010018681e-03
      -5.9187078253323012e-02 3.3352600325611798e-02
      2.8890887615126686e-02 9.1243213161354333e-03
      9.0372843672207638e-03 -6.8069266613715861e-05
      1.1443251016378126e-02 1.6293268299120003e-02
      -1.7744960621285631e-02 5.2405738039794231e-03
      7.2165870385625178e-03 1.3708911688269613e-03
      9.6576665583738407e-03 1.6627644646238077e-02
      -1.8627675753294052e-02 -5.5121148877471853e-04
      -8.3888103402676856e-03 -9.4277997506897609e-03
      -1.3822207492564489e-02 7.1100686462973696e-03
      -1.8075239204395206e-02 1.4455431083489333e-02
      -7.9860889998734138e-03 -1.5883778510357143e-02
      -5.8586372351834880e-03 4.8510711875786395e-03
      -1.1295948519658101e-02 2.3546421511754418e-02
      -6.5002035779840039e-03 4.3067901887545359e-03
      2.8362208939148805e-03 -1.5442408756198999e-02
      -8.4681249724611225e-03 1.5546805278596825e-02
      -3.1481676798639675e-02 -1.6872656293203645e-02
      3.9156687834280726e-05 -1.4675999917432648e-02
      -2.1787380454993011e-02 -1.9612684919191922e-02
      2.1883957484852907e-02 -2.2330065593258583e-03
      6.9785753580565895e-03 8.0986935847895125e-03
      4.2615618399146574e-03 9.2086982064729789e-03
      -5.5659111479659466e-03 -5.1131160314820279e-03
      -1.6343212895000056e-02 -1.6563815064164947e-02
      9.7304866413454576e-03 -1.2836494936155603e-02
      1.8645772815017590e-02 4.8862965372667936e-03
      -1.8110947452115805e-02 2.4310263013853521e-02
      6.7585185327643941e-03 -7.8358558223798822e-03
      2.7429351387954146e-02 1.6903289785152736e-03
      1.9803672312179024e-02 -1.3022626417171628e-02
      1.4943844309808657e-02 9.7959962472071987e-03
      1.7475543866761565e-02 -2.0135050359320849e-02
      6.2891755141134837e-03 1.7385042419942764e-02
      -1.4562084800121399e-02 1.2688772846400530e-02
      -1.8647275952205057e-03 6.2804042143759656e-03
      6.8737521366551207e-03 7.7257539562445481e-03
      -2.5708622854743648e-02 -5.9760511268027779e-03
      -3.2899572970688895e-03 -3.0109262252792323e-02
      1.2348717417079566e-02 1.0135660098127143e-02
      -1.9911886878221766e-02 -1.1899019892875222e-02
      1.6023435862277013e-02 -2.6055373054764725e-03
      1.0681299381943047e-02 2.2310399624315570e-02
      1.6859180762360329e-02 -4.3385876152157339e-03
      -1.1380537405915010e-02 4.7249971427010835e-03
      1.1009606997204487e-02 -6.3022770990913907e-03
      1.0730279207988027e-02 2.7171662655422271e-02
      5.1406573006348910e-03 1.8889762765687268e-03
      1.6125407342870345e-02 5.1175767215718331e-03
      -4.8930519076541565e-03 2.5739644004292737e-03
      -4.5136934653731073e-03 -5.1260325056049182e-03
      8.8552509944784513e-03 -1.3960838612059073e-02
      -2.4267477589711684e-03 4.0046793979175727e-03
      4.6810604027845738e-03 -1.3449331296391852e-04
      4.9237693383286131e-03 -6.5559050673863837e-03
      -3.1158957265956530e-03 3.1849388428026692e-03
      1.7210534723833841e-03 5.5886931958958972e-03
      9.3164065848475887e-04 -4.8723897761065683e-03
      -1.5016481661572056e-03 -3.6504398180002616e-04
      4.0028649063938663e-03 -1.4733979183574714e-03
      7.7784226014520966e-03 -1.6241316831101620e-04
      5.4985644338837630e-04 -5.5609778559130678e-03
      1.0333816645506976e-03 -5.2027370236969409e-03
      1.0715403475612811e-03 -2.7951857599024291e-03
      -4.3376340170042434e-03 -1.1263604005584689e-03
      -3.1022598205421924e-03 5.3027365103826786e-03
      2.0776122644369905e-03 -5.0713846153011919e-03
      -3.5613655833850360e-03 2.7929973760438980e-03
      4.2840159623164760e-03 4.6220607751016477e-03
      -6.3474625555751231e-03 6.7327679125078765e-04
      -9.9324242912580637e-04 -1.3391193644576461e-03
      5.9481177717304514e-03 -5.5454982576929176e-03
      -2.9758324990512555e-03 -6.2314304878497194e-03
      -5.0601560117055000e-03 -7.9051602328578906e-03
      2.0072160387097247e-03 -3.2874346344063418e-03
      -5.3153183685424703e-03 -7.6196572010692196e-03
      -1.1753762840975093e-03 6.6816045747214847e-03
      -3.9887380805913343e-03 -4.2938064024367877e-03
      -5.4945751835009790e-03 7.0796030647729147e-03
      7.2185923256523393e-04 4.2911304475556642e-03
      -1.4455750682003199e-03 6.8390482569568407e-04
      -7.4524984520152960e-03 -2.0984017476483722e-03
      5.7720870088986270e-03 -4.5809704704717716e-04
      -7.5369008983460937e-03 5.6758182387572458e-03
      3.4035083039352988e-03 -4.1744628466835439e-03
      -5.2035546722821709e-03 3.1887066751188763e-04
      -1.5940978987486287e-03 2.5881672415539693e-03
      -7.4304816256289038e-03 -3.3702457846698239e-03
      -6.0576148027682375e-03 -7.5945046866468394e-03
      2.1072646969676586e-04 -6.9010650681179397e-03
      -3.2823185643173739e-03 1.8562371399613764e-03
      7.3229840990008512e-03 1.4332206059085438e-03
      7.3004618062374772e-03 4.8515418714888950e-03
      8.8371210589264289e-04 1.3124531601211838e-03
      6.2640339213050024e-03 -6.9167981298218269e-03
      -7.3974074266519099e-03 1.4042447212900084e-03
      -3.8223742935893455e-03 2.2839802135002788e-03
      -3.4680625244150557e-03 3.3204517400357843e-03
      6.4631875110516008e-03 6.9521690637168142e-03
      2.3691986349226686e-03 7.6413004901772167e-03
      -7.3776306488276960e-03 1.3439730531692156e-03
      4.2342670971989363e-03 -1.0069170886755571e-03
      -1.3727723923272718e-02 -3.8545881862704551e-02
      3.0249429600925835e-02 -2.1187328438097525e-02
      3.1108078703374089e-02 4.3591877714819129e-02
      -9.3108386381344343e-03 2.6409884243856506e-02
      5.2984200042154983e-02 -3.3236932758711396e-02
      4.3085902847182167e-02 5.5522436897196395e-02
      3.4146980255519745e-02 3.6689859827086363e-02
      -5.4850356809381644e-03 5.1908938783170652e-03
      -4.0004982229139702e-02 8.3833018862825817e-04
      -4.1543678990385614e-02 9.2084193943279841e-03
      -1.8978933475763005e-02 8.0749182784861293e-04
      -4.9976303277271331e-03 -4.0098191021270416e-03
      -5.3914847663958324e-03 -5.3011405366488115e-03
      3.7574104675611817e-03 -1.4236658556289095e-03
      -1.4000184515439746e-03 -4.2715023090371994e-03
      1.8887886550432404e-02 -2.6514058483829997e-02
      9.9210097536517917e-03 -3.2082144048046032e-02
      2.8763179014728791e-02 9.8954976566767404e-03
      3.1894028783597365e-02 -3.7668003734754651e-02
      3.8518251847707290e-02 -3.1057278945368496e-02
      -4.8874860135412680e-02 6.3927549637772443e-03
      -3.2335626127214981e-02 -9.9350216304766523e-03
      -2.4795074356483985e-02 -1.3972809100856146e-02
      7.3272028063158065e-04 7.1441922526020883e-03
      2.7852579486455534e-02 5.6416163002836257e-02
      2.5079426691281579e-02 -3.4192551946427743e-02
      -1.9345068642508810e-02 -3.2346771932144931e-03
      3.1450198070425879e-02 4.6534892167405195e-02
      -1.4179625375421785e-02 2.0811128546060305e-03
      5.4889819528562873e-02 -3.1393228116543888e-02
      2.0623496907009160e-02 1.3819436334572611e-03
      3.7697331160722936e-02 -3.9607360975864652e-03
      2.6053076804413374e-02 4.7960559178361506e-02
      -2.2998839193168127e-02 2.4325422237159090e-02
      -2.4419847485511865e-02 -4.2563118984799295e-02
      -3.7559516677038995e-02 -5.4165376683368068e-03
      -4.6810532433534162e-02 -3.5022782279219303e-02
      5.5958840743978389e-02 -8.5558931337029118e-03
      -6.6070826026624757e-03 -1.7055307113634635e-02
      4.2812669084082558e-02 -1.0518320522078611e-02
      2.6163585535255923e-02 2.5672459246539710e-02
      1.7979699274774545e-02 -6.9368699494589377e-03
      -5.9272714797086012e-02 3.1669418770384566e-02
      5.3629499740294170e-02 -2.4884436299597960e-02
      -2.4522930762774328e-02 -2.4876737005893036e-02
      -6.5205134371940476e-02 2.9255384169213576e-02
      -8.7395640748078110e-03 2.5361337915553706e-03
      7.2896545660677395e-02 1.3836459214716270e-02
      2.8478106514911280e-02 -1.7577259164535598e-02
      1.4378525280947531e-03 -1.6913533348705091e-02
      8.5220851375390191e-02 -5.7914921201294267e-02
      7.3249713764703517e-02 8.9079071694613057e-02
      -4.0621880727756583e-02 5.5180799883553060e-02
      4.0404129120369482e-02 1.8060313782876102e-02
      8.0823766915536069e-02 5.2324994586312672e-02
      -6.1269369459445566e-03 2.9479073958907972e-02
      1.4746910932732714e-02 3.5520033266703756e-02
      -6.3313272378664603e-02 1.1779499520103381e-02
      -8.0792328771140121e-02 3.2374413879685274e-02
      -2.4942194897190892e-02 -7.5650251001897845e-02
      -3.2230519953194633e-02 -2.2700004930944252e-02
      -8.3980160703560139e-02 9.4280670764964616e-02
      -9.0322996431502503e-02 9.4000172467898921e-02
      2.7485013046721858e-02 -2.8412103376781742e-02
      -1.0791220855203489e-01 2.4860838053827043e-02
      -4.9661236717974018e-02 -7.7630008411378501e-02
      -1.2444776338190855e-02 -6.4445753155971633e-02
      -8.0832818737773093e-02 -8.6046446772299182e-02
      2.6842423578011049e-02 -1.2884950657487560e-02
      3.3934045082066891e-02 6.1104808165358772e-02
      -5.4961267110341244e-02 6.8116554522843278e-02
      -3.6130793983767041e-02 -9.0887918895597261e-02
      -8.9853024586537739e-02 -5.7649556252220978e-02
      4.3117392322533594e-02 -6.0890592374013702e-02
      6.7048676398672485e-02 5.3785804299215041e-02
      -8.1232060011397600e-02 5.3346142084669652e-02
      9.1497725834285198e-02 -8.4103845243987299e-02
      2.5744715346383340e-01 3.9387711458976689e-02
      3.6196517425098461e-02 -9.6381195178970480e-02
      7.1579177855931750e-02 4.0897917004109573e-02
      3.3911333832652324e-02 -8.4832831360583227e-02
      6.5380345303634596e-02 1.2970476912609213e-01
      -7.9553561653454063e-02 7.7994393721535771e-02
      -2.4384677341168445e-02 5.7330979152351004e-02
      1.0884162867029890e-01 -1.8075271371104523e-02
      -1.0256123270660615e-01 -6.3141052518322638e-02
      -6.3512202311861235e-02 -4.6409822883807725e-02
      3.9934822737402717e-02 8.7100816347403423e-02
      -7.5843371101035645e-02 -3.8190126646650474e-02
      7.6167238061327427e-02 -9.3379580973314696e-03
      3.1290544087019548e-02 2.2578496012067989e-01
      1.8153091625138718e-02 -5.8038594714086185e-02
      -7.3004339704568058e-02 7.7452634044736957e-02
      9.9217693656443035e-02 -5.8842989248817722e-02
      1.0703682346769793e-01 8.1636466106148248e-02
      -5.4211676048825409e-02 7.3694097398923727e-02
      6.7005822204038931e-02 1.2142521604834847e-02
      6.5926449461634742e-02 8.2125624975075126e-02
      -5.6303858496420757e-02 -4.3313749967295027e-02
      1.0458505290900894e-02 -4.2835021418967480e-02
      1.1322000544589961e-01 -5.2572485436264894e-02
      7.4471955438348461e-02 8.8072495704542564e-02
      2.7630411889546562e-02 2.9358287654734836e-02
      4.9419542047417657e-02 5.5223702877980722e-02
      1.1498883963083859e-01 4.7302936092698804e-02
      -2.6782166539915777e-03 6.2027220729000125e-02
      2.0153115819078044e-02 -1.4005013890808431e-02
      -3.8219358029258771e-02 -1.3420946918168563e-02
      -4.1484395138544912e-02 3.2505322174731406e-02
      2.5892838959538519e-02 -7.3645155207097898e-02
      -5.9068417366627067e-02 2.7548164966707603e-02
      -8.5498820473988199e-02 7.3015374745819511e-02
      -8.9095520193232691e-02 5.2608332868878088e-02
      1.9168582588399416e-02 -3.5721723853476398e-02
      -1.1036007434788513e-01 3.3361585298128361e-02
      -6.0784385221589889e-02 -6.4304806602582976e-02
      1.8505703427303521e-03 -8.1003217444436615e-02
      -8.2923393509789139e-02 -7.2630257519513561e-02
      3.3900543775380855e-02 -2.4647751124655125e-02
      -6.4706975260401490e-03 6.6248132156824263e-02
      -5.8235842230362600e-02 7.0770782440554958e-02
      -2.4847880784296023e-02 -6.0790399970098670e-02
      -8.1599143702565644e-02 -9.1313635771623630e-02
      1.9940848162795722e-02 -7.7708002613219571e-02
      3.6169601210261942e-02 6.1458326705535034e-02
      -7.4316670194458229e-02 6.9835912660328833e-02
      9.3938909600580933e-02 -4.3243023704814698e-02
      2.5969179007210769e-01 6.8497193703102574e-02
      -1.3099305191527657e-02 -1.3471229745247165e-01
      1.0073833119963103e-01 1.4500717866701974e-02
      3.5026411127666808e-02 -7.6383688430608498e-02
      4.8679631786541611e-02 1.5505734121884471e-01
      -5.9193751945335368e-02 1.0255159028522047e-01
      -2.0540255714348449e-02 2.6422460707574612e-02
      1.5492650457576876e-01 -1.7510956974428817e-02
      -9.0164349299001134e-02 -4.7337405455483636e-02
      -5.5917435197954279e-02 -1.2655407327298368e-01
      5.5032619331382156e-02 6.2479451166840158e-02
      -9.8748349983422606e-02 -3.9130057515503587e-02
      4.5783213866485914e-02 1.7313074727760693e-02
      4.2611030177543634e-02 2.4295278953523339e-01
      3.9952725093035405e-03 -3.1191889727856123e-02
      -1.0998121245866688e-01 8.1936593649898207e-02
      9.2146908247574669e-02 -1.0411826961904372e-01
      1.0392679372084822e-01 9.5841218198116182e-02
      -6.0414721791597042e-02 8.1105184954030587e-02
      6.7147659168893967e-02 -1.3466863344062087e-02
      7.4827778113313648e-02 6.9680157459438966e-02
      -1.2041298480893659e-01 -2.5794500137323862e-02
      -2.5669354255293715e-04 -3.7539089237772161e-02
      2.3188961726654217e-02 -6.3026123703497680e-02
      3.6992581705486499e-02 5.4027877628876335e-02
      -4.9896715383046325e-02 7.8767385827141739e-02
      7.9546833892826560e-02 -4.6780720387160106e-03
      1.1006745903266138e-01 1.0517815324153129e-01
      7.8546274121168214e-02 5.5676601624893921e-02
      8.4345774690705366e-02 2.6174208815900227e-02
      -4.1896858612557372e-03 5.3272446929098244e-02
      -5.7430259911199592e-02 5.2008812156115664e-02
      -5.5282688396587079e-02 -5.7022997389296518e-02
      1.6732568322270470e-02 1.4588385017138905e-02
      -4.7266516930978462e-02 4.5604544422545253e-02
      -7.4836421519683755e-02 5.5976624322601448e-02
      4.1586527332949430e-02 -4.8895077891105455e-02
      -8.8385768624898609e-02 2.9074758832137435e-02
      -3.8534983026302511e-02 -7.3576868942732174e-02
      -4.3396342783883057e-03 -4.7156033402919594e-02
      -5.2235149821857486e-02 -5.9618697075274028e-02
      7.5547834927491189e-02 -7.2202961684594114e-02
      1.7573701394609693e-02 6.0576750313696352e-02
      -6.3405582459608589e-02 2.5932846307264879e-02
      -6.5089057211180190e-02 -4.8526609087204159e-02
      -2.4204046453122147e-02 -5.0330211751977313e-02
      3.9422861327057884e-02 -3.3921020544180391e-02
      5.3533713555500219e-02 7.2315173692517193e-02
      -4.4325070259513558e-02 7.0916606664518975e-02
      2.9001472881351173e-02 -2.5045318292814936e-02
      1.0958196969495690e-01 6.4530041547142036e-02
      5.7201284107605478e-02 -7.6325067147781478e-02
      6.6385957184717431e-02 7.2247696130159703e-02
      -2.8355251696974490e-02 -2.9689137735736764e-02
      5.6721664249974102e-02 2.3099833498326477e-02
      -4.9897051598404595e-02 1.1047602752831370e-01
      -4.7402691582726864e-02 3.5775298208683998e-02
      6.8649008880693946e-02 -4.7851741427400091e-02
      -8.3252073566039378e-02 -4.3840696020314374e-02
      -4.7864386988294295e-02 2.7655351084982266e-02
      6.7743131801648371e-02 4.8801748296052709e-02
      -9.2535970679780526e-03 -6.8444846377749377e-02
      5.8411984601704603e-02 -3.3522663670871776e-02
      4.0946567517463894e-02 1.1760951078213362e-01
      4.0101120297150929e-03 -2.5221273933553286e-02
      -7.4995614989392556e-02 4.3247042525523242e-02
      2.1500352175871176e-02 -3.1698446296525906e-02
      7.5391885276196210e-02 4.8766734393085348e-02
      -1.1542840235413820e-01 6.1603684914426970e-02
      4.0898273736629367e-02 4.8907213078430094e-02
      6.3684583494385189e-02 2.8403925412402688e-02
      -5.6586495918685031e-02 -2.3059858573364529e-02
      4.1927170264656782e-02 -2.3602883391108893e-02
      1.2751794333900832e-01 -3.6875237142544461e-02
      8.9062610138869513e-02 1.5413797226540107e-01
      3.8700617423674706e-02 3.1039281070103203e-02
      9.2642776077560371e-02 -4.7522522106217862e-04
      1.7186281022414801e-01 1.1722520490480766e-01
      1.9144962627320489e-02 5.4542675591361986e-02
      -1.1500134078753252e-03 -1.5312132789529453e-02
      -2.9913191232812601e-02 3.9886194137090818e-02
      -6.1043318984148026e-02 4.2561873544777550e-02
      1.2532047322103126e-02 -1.1251611307804270e-01
      -3.7182510081027166e-02 -1.8480761080150586e-02
      -1.0571401164238756e-01 6.8851299873911725e-02
      -1.1699499266498387e-01 5.7350979350101333e-02
      2.3108999451179869e-02 -3.9005570550429587e-02
      -1.3381415996990617e-01 2.7330022203845224e-02
      -1.4818083232403295e-01 -7.3196726633658449e-02
      -3.2055397333944802e-02 -8.2441603403414082e-02
      -1.9870777412325943e-01 -1.1869147750330718e-01
      3.4232277383700771e-02 2.9050547722392882e-04
      4.1590491298192464e-02 1.0154557851270239e-01
      -6.6215841883683776e-02 7.9187480339608929e-02
      -4.9422352407740580e-02 -6.9802439672290870e-02
      -7.6664734695372605e-02 -1.1330423997527066e-01
      2.0236454510195692e-02 -5.6448857632933128e-02
      6.8962772948254800e-02 1.0103666005209247e-01
      -1.1909705118066508e-01 1.7433089097219187e-01
      1.1192939034865282e-01 -3.0557686946528176e-02
      1.6617739417635166e-01 1.1393172284453981e-01
      -9.8182842811527313e-03 -1.9037349457489525e-01
      1.3398220407888789e-01 8.6879380333986456e-02
      4.4688858701721353e-02 -7.1830941607654117e-02
      4.9276549688197391e-02 1.0553722430285703e-01
      -1.0599319002460106e-01 1.7139457172335584e-01
      -2.9878094360843915e-02 4.4468761589108660e-02
      2.0879023368830202e-01 -5.4266822858885844e-02
      -5.5742711061997172e-02 -7.7804943380288927e-02
      -9.0400556313831454e-02 -9.0894355133795984e-02
      1.0609790315776149e-01 7.4602351210553391e-02
      -8.3560248279930138e-02 -5.3985924015045404e-03
      8.5415329433069329e-02 -2.3503902179932762e-03
      5.4776415643984562e-02 1.6662397783657915e-01
      4.5985693716453245e-02 -4.7897938808428277e-02
      -1.4650364002681274e-01 9.5939628449448866e-02
      1.0929354692339363e-01 -9.5109575680392425e-02
      1.6826663486076918e-01 1.4588467659009957e-01
      -8.6367810948132992e-02 1.1042515168844223e-01
      4.7837259111888492e-02 -2.4084397916514814e-03
      1.2331652746488174e-01 8.2117181286723392e-02
      -1.4575002894211850e-01 -3.1726277585066784e-02
      2.6327260562450203e-02 -2.4182713897829229e-02
      3.1646976200588636e-02 -3.8160811641468444e-03
      4.6337801550647172e-02 9.1986811342724004e-02
      -1.7878499804101750e-02 4.7410370942376406e-02
      2.4252874335220047e-02 -3.9182281270337009e-02
      1.0755305213617485e-01 7.5882611677470777e-02
      -5.5782661093050634e-03 2.7587835592687009e-02
      -1.0393772807994986e-03 3.5500137121570519e-02
      -3.8921250761872687e-02 3.4382225694536812e-02
      -7.6645870598211180e-02 4.9031011832090333e-02
      3.7658573815093375e-02 -5.8881573809161106e-02
      1.8535160463594009e-05 -4.3789581849815254e-02
      -5.9266174750644933e-02 8.8920945105902163e-02
      -7.0530323574179030e-02 1.9444508437896489e-02
      3.6648736056272890e-02 -5.3333531237696130e-02
      -8.8906205309273845e-02 4.5438492513374951e-02
      -1.0168839462432110e-01 -6.4876401216951207e-02
      -5.2538942759178239e-02 -6.4666158080999847e-02
      -1.3654574488548005e-01 -9.8339010514068043e-02
      4.1491232676119393e-02 -1.8886506116762073e-02
      3.2146568340878312e-02 6.7792371191254655e-02
      -2.5039868944641774e-02 2.4105789603197855e-02
      -5.3086550735479771e-02 -1.9729370991717225e-02
      -6.2927698570111545e-02 -5.5367908562901101e-02
      4.8401251871202061e-02 -7.1322130377896656e-02
      7.6151273974838993e-02 2.9083641908303561e-02
      -8.4052940060374365e-02 1.4393583778710803e-01
      5.4167503490143848e-02 -3.9676036116628913e-02
      1.1928311574670603e-01 5.9686701580104098e-02
      1.0609125061308296e-02 -1.0591287662863690e-01
      7.8865123522526670e-02 5.1657113954599619e-02
      1.1611039400958055e-02 -4.8879114009729475e-02
      6.3368249844826530e-02 -6.0020351427509513e-02
      -1.0281544139036806e-01 1.1172800846206066e-01
      -2.8069116590659523e-02 3.7380812367321298e-02
      1.2504463360977550e-01 -5.8202563142607956e-03
      -1.0034211792909030e-01 -2.9653706351942411e-02
      -7.3149539840647565e-02 -2.7024827780559275e-02
      -4.2996826782171288e-02 8.4604646525325081e-02
      -6.8305660637708585e-02 2.7918014676355463e-02
      9.0332061767220029e-02 2.3332173446975329e-02
      5.2339243970796721e-02 1.4004021839607564e-01
      -4.4091345000624518e-02 -6.4365383089721048e-02
      -7.5446463136548014e-02 4.1177449398236650e-02
      8.7188612684871908e-02 -4.8849572306256007e-03
      9.5199765547985191e-02 9.0195400200258818e-02
      -5.0327023744430273e-02 5.4305018811763972e-02
      8.1254373330974239e-02 -4.5551234586276267e-02
      9.9685306205541016e-02 4.7201332743122736e-02
      -6.1123907380894273e-02 -5.4131617815899674e-02
      4.3711431729993769e-02 -1.6484258632459545e-02
      1.2367647668846073e-02 -1.1426473705556873e-02
      6.4061554245412218e-03 -1.0065957680603007e-02
      -3.3515723776033346e-02 2.2398430198026103e-02
      3.1839509478164267e-02 1.3579578635052790e-02
      9.6763596852855974e-02 3.7931400710517697e-02
      3.3324020285542322e-02 3.6716708839081555e-02
      3.6905893195578986e-02 5.9176908625168570e-02
      -6.1460240707265204e-02 -1.3230265309963659e-02
      -4.4015197024631664e-02 2.8214599884477644e-02
      -2.6611046132668025e-02 3.7707362706142725e-03
      -7.4696439630219627e-04 -1.2223583562614158e-02
      3.6819387791802200e-03 3.2675833202463027e-02
      8.9136123720665872e-03 -2.5116576209366884e-03
      2.1700164833153738e-02 -4.9440396255416290e-02
      6.5201456676235786e-03 2.1361689141877280e-02
      1.5390250433543477e-03 -1.2782215534613612e-02
      -6.0824855822435844e-03 -2.1059941331948617e-02
      -1.1523113598632055e-02 -4.1277908364336861e-02
      1.6100663247573414e-02 -2.9065119590851868e-02
      4.3637958405460843e-02 4.0878736774273790e-02
      3.0952690413403299e-03 -1.7695183361727769e-02
      -4.6704589682783647e-02 -1.2100470324647712e-02
      -3.1344536848724153e-02 -4.6931414161588197e-03
      4.6011385328525431e-02 -4.2881234965691781e-02
      4.0272933796702999e-02 1.7041503934770830e-02
      -1.1528232725112613e-02 5.7760023156848680e-02
      2.5907331449571174e-02 -1.2683751297691209e-02
      -3.4918385800104056e-02 6.4170222522493298e-02
      4.6371572962209548e-02 6.9799157928481272e-03
      3.6286748694523203e-02 2.4345047745841942e-02
      -6.2455049100199689e-03 7.2328901226033094e-05
      2.5289361292954435e-02 2.7034891303793305e-02
      -4.5792421601372597e-02 1.0257421995450017e-01
      -2.5905505482213913e-02 3.0067828237994997e-02
      -1.3368525277219113e-02 -2.3165857541489955e-02
      -4.0361637663142456e-02 1.7716644716613415e-03
      -4.2493834213697741e-02 -8.9651723219467180e-03
      -6.2520066280150666e-02 2.0369386276678135e-02
      -2.5043521260305530e-02 5.0960742490579879e-02
      5.9210632645786548e-02 -3.8833078153752254e-02
      3.8104929799544864e-02 2.3885183850842269e-02
      -3.0803095378222695e-02 -3.2871213039489061e-02
      -2.8875022096116810e-03 1.2173101109214024e-02
      3.9616526540357772e-02 3.7961436611208661e-02
      6.7751403781417694e-03 -9.3403199306679608e-03
      -8.4153844044163994e-03 7.0936585088843783e-03
      2.6006644457542308e-02 -5.5718636300001864e-03
      8.2816934265682526e-02 2.6906990303487532e-02
      -1.5962873290242739e-02 -4.3667240794406460e-02
      -3.7094539934095609e-03 -1.3867276690822328e-02
      -8.4363466815512392e-02 7.3520599137662734e-02
      -6.6472285052783756e-02 -3.2875750346500088e-02
      4.0322162734555127e-02 -3.8556436099343554e-02
      -9.2640699496507731e-02 4.9749554491598340e-02
      -6.6195849769793938e-02 -4.1700695869641535e-02
      -7.5054251008639411e-02 -6.3747389561746720e-02
      -5.1914770000084896e-02 -5.6028657415527129e-02
      9.0728162941127691e-02 -5.4856242777115788e-02
      1.7506626841753980e-02 -2.8423637814142564e-02
      1.0395224070451144e-01 6.0405134194280327e-02
      -3.8519209401154483e-02 2.0923383639424340e-02
      5.2004725083986111e-02 -2.9675558161576229e-02
      7.8967431680943917e-02 -9.4137184330861073e-02
      -3.2664149077554057e-02 4.2370338922825948e-02
      7.3045271366491152e-02 -1.6899816301199470e-02
      -6.5346659310886379e-03 4.8263803018041153e-02
      2.1330347876692662e-02 3.5260248955875838e-02
      2.9407980451001164e-02 2.9703802016776176e-02
      -5.9741017040820410e-02 5.0033336948259656e-02
      -4.8884819888902649e-02 -3.9868704018874108e-02
      5.9440942175462724e-02 -3.1568692464734198e-02
      3.8916756684554625e-02 9.8393115658611099e-02
      1.9165593272439555e-02 2.7969755024716884e-02
      -2.4052304218046130e-02 1.6884612824040694e-02
      -2.8586636537124451e-02 -6.6985227386117785e-02
      2.8584747351292836e-02 -4.0739282741819455e-02
      -7.1163529070216780e-02 8.6141555299873218e-02
      -2.8830022008128807e-02 -5.1962721294937453e-02
      -4.0264427577081000e-02 3.6184552719612767e-02
      -6.3415169465157351e-02 -4.4530890326855269e-02
      5.0440762917622915e-02 2.6323825519419003e-02
      -3.1044581009741785e-02 -1.0890307518552519e-01
      2.6876571371260642e-02 -5.9002667317567155e-02
      3.7819929786353221e-02 -3.2393291957924959e-02
      -1.2817825592869673e-02 5.1877911385832698e-02
      8.9368785601264544e-03 9.5605339650252599e-02
      4.8092966591648662e-02 -3.5673149539420031e-02
      4.0195492959278880e-03 -2.2505212999925878e-02
      1.5064111315542346e-02 5.7856483223612858e-02
      -4.3349559887500611e-02 8.4760424429183717e-02
      -5.8786612242374657e-02 2.7632993109233020e-02
      2.4430022276686298e-02 2.2982254442042622e-02
      7.0408239490669669e-02 -7.7673590001197237e-02
      -6.8167249867138083e-02 -2.1124139319359355e-02
      -4.7274903570930643e-02 -1.7663106476617032e-02
      3.8001844679862659e-02 -8.3318246489737083e-02
      -1.1346338591802538e-02 -7.2699417243555595e-02
      -7.4932287809025430e-02 -8.1556043897193425e-02
      5.7680953764888090e-02 5.5381210768105316e-02
      -4.4645206116512758e-02 2.7229984197056165e-02
      -1.2244984733260715e-01 1.5279118426318977e-01
      -9.8889971093005791e-02 -8.0671400952046446e-02
      9.6248732603658863e-02 -1.2187776474181025e-01
      -1.4154069100330635e-01 1.1469053645340981e-01
      -1.2566240015422819e-01 -1.2448107145554621e-01
      -1.0222867715763106e-01 -1.3161950612357406e-01
      -1.2110256093961573e-01 -3.2545296850132424e-02
      8.4968758226602464e-02 -1.4573301581360146e-01
      1.2479744205738655e-01 -8.8249870064838559e-02
      8.1504213858075089e-02 1.0557500326815702e-01
      -9.2366676708668174e-02 4.9532162589128369e-02
      8.8066969051964705e-02 -8.3651525230596713e-02
      1.1636865008374825e-01 -1.0859062246769219e-01
      -7.7841003220289820e-02 9.4112898786390217e-02
      1.2250133934618544e-01 -5.2214491683667402e-02
      4.9931115411400905e-02 1.0953660935607681e-01
      1.0154910941548785e-01 8.5098341789768078e-02
      8.8065583562679767e-02 9.0002925716769752e-02
      -1.2935898684353697e-01 1.1302392873676040e-01
      -4.5998226801237684e-02 -1.1229259109986707e-01
      1.4875089061837718e-01 -2.7038385995912403e-02
      1.1398932796857783e-01 1.2338515532245964e-01
      8.4489335873390650e-02 6.7560491951614315e-02
      -8.5225881213454507e-02 7.8461954676738152e-02
      -9.6255147265805696e-02 -1.1360955688165372e-01
      9.1723159672523605e-02 -1.4186641274191594e-01
      -1.1841993938316490e-01 9.0145976756835583e-02
      -6.7866885230988730e-02 -9.9504291232000094e-02
      -9.8711465329736459e-02 9.8428351307195738e-02
      -1.3078859426670991e-01 -1.3771208591014283e-01
      1.0123286481522298e-01 5.7596689654452415e-02
      -1.1295220524258186e-01 -1.3420419246160412e-01
      9.2951309476055760e-02 -1.2432558380879043e-01
      7.8354326052229153e-02 -7.2624914565854071e-02
      -5.3311671964432844e-02 7.7405941367626754e-02
      1.2605757257405548e-01 9.4698224527165017e-02
      1.3721437387277391e-01 -8.1036682596545645e-02
      -1.0027637496842419e-01 -7.5233093895781145e-02
      5.4644503633583925e-02 1.7756406804401129e-01
      -1.4103649427141984e-01 7.3922029330601935e-02
      -1.0582617208406442e-01 1.0059751773997481e-01
      3.1125219751181564e-03 7.6587649982299555e-02
      1.3546869007052481e-01 -1.1219876866763341e-01
      -1.5381777336440167e-01 -9.5940216436311440e-02
      -1.1295283910883375e-01 -9.6485587618710650e-02
      1.6575515095295201e-01 -1.1318838571519473e-01
      -5.3051754791922361e-02 -1.2468837983671964e-01
      -1.4579594228482931e-01 -1.2372130001218797e-01
      1.4243360933599725e-01 7.7697178274122591e-02
      -1.1556760629631861e-01 3.5337167093569141e-02
      -9.2054791426853938e-02 1.3304823541827665e-01
      -7.9318586748307357e-02 -4.3301836606074846e-02
      7.0027655040997880e-02 -1.1591541995643029e-01
      -1.0419739240985708e-01 1.0021759177710166e-01
      -1.2619308596229059e-01 -5.9196094888097753e-02
      -8.1458242337477199e-02 -1.1366082732725719e-01
      -9.7496116197951135e-02 -7.3014152315347608e-02
      8.4494233889448697e-02 -7.9643687419678852e-02
      1.0826699390673795e-01 -4.9417104230849461e-02
      7.4680410923005397e-02 5.7352553243212964e-02
      -5.9278933559819252e-02 6.3108909127655682e-02
      5.0498281662219945e-02 -5.0248198358840535e-02
      7.7574558003717500e-02 -7.4811218189698353e-02
      -5.3349912464709118e-02 8.0858562200520720e-02
      7.0846241118035558e-02 -4.3147497962638913e-02
      5.2474983799220352e-02 1.0680597532012537e-01
      7.4718794377203218e-02 7.7491205999492455e-02
      5.8954252813966615e-02 5.8281910025463790e-02
      -6.5398256963604171e-02 1.0546654385674893e-01
      -6.5615116288834999e-02 -6.3055677239281543e-02
      1.2867493988307360e-01 -2.0154128504495702e-02
      9.9154466205247607e-02 7.8341778945361359e-02
      6.1751362135415745e-02 4.1637135755413675e-02
      -6.0299830994221586e-02 4.9426614740394691e-02
      -8.8751772348736782e-02 -8.7324761640288281e-02
      5.3072079420693793e-02 -1.1506317538437842e-01
      -7.9021580824329155e-02 8.0940892596741018e-02
      -2.5884174654562744e-02 -1.0789078055478965e-01
      -7.9305430028175236e-02 3.8540832283916804e-02
      -9.8626840390785647e-02 -5.7228203939753919e-02
      8.0072968624584157e-02 4.5003295550424614e-02
      -8.7771114445859152e-02 -8.7444947815652471e-02
      6.6389034034046043e-02 -1.3382764538758571e-01
      6.1764470625340767e-02 -6.4554331595809367e-02
      -2.4332747527726628e-02 6.7079294830319519e-02
      1.0252425211355193e-01 7.3060728260573859e-02
      1.2134978952132952e-01 -4.4373653530015496e-02
      -3.6137463688274231e-02 -5.1898881092038059e-02
      5.0862864145199776e-02 1.3593705713071061e-01
      -1.1901091336555729e-01 6.8586406696918803e-02
      -9.0524499832817767e-02 7.2496491604178759e-02
      2.5159129123348750e-02 5.4948468426498823e-02
      1.0421665548030172e-01 -8.8120430096740768e-02
      -1.0980228158782594e-01 -1.3420681584694180e-01
      -5.2724902394619327e-02 -4.1556798995932377e-02
      1.3616817267318018e-01 -8.1466757783453164e-02
      -4.0881460238217392e-02 -8.7208669663001476e-02
      -1.2363010463097904e-01 -9.4310443574301461e-02
      9.1961208963367069e-02 7.5348450388888127e-02
      -6.0054921805684773e-02 2.6641343873806445e-02
      -3.9468124966778186e-02 -1.2431888790118610e-02
      3.8030511829415816e-03 -1.6843611166748693e-02
      8.7785947430392308e-02 -5.2948349093600577e-02
      -1.0519989447072282e-01 -4.9986123149103395e-03
      -3.3224176101810159e-02 -9.9062207028978250e-02
      -5.2917998164300414e-02 2.0365211912208549e-02
      -1.1505152094541368e-01 1.4118362934160971e-02
      -9.6688449246152511e-02 -1.7356068181082970e-02
      3.9184124066725709e-02 -9.4858951413954340e-02
      2.3914040292737110e-02 5.7582694283901011e-02
      -7.7782919747473978e-02 -3.5482239590231737e-02
      4.9029839980727540e-02 2.5504384310433080e-02
      1.7613097668180325e-02 2.2110004939912942e-02
      -6.2387574898176895e-02 -3.0707292511537556e-02
      2.4768840428308868e-03 -2.9183344719729064e-02
      4.9454791082757972e-02 1.5533210362591338e-01
      -4.8074132503113293e-02 1.5957736845053958e-01
      3.8158567736026942e-04 -4.2437284769193707e-02
      -9.3403958522770295e-02 5.0180769882527614e-02
      8.0729268493545683e-02 -8.9105974998690884e-02
      1.9299734994160163e-02 -5.3671159368428190e-03
      1.8418673158364673e-03 2.6225466658244762e-03
      3.1616638668060124e-02 7.4094127218051004e-02
      -4.2639863622562356e-02 6.2283095714194200e-02
      4.0826620788150761e-02 -5.6462276014139286e-02
      2.1320267428349523e-02 -1.6768646616050441e-02
      -2.6687378731212658e-02 -6.5384635709931888e-02
      1.0313716996051095e-02 6.5280253466120125e-02
      -6.4479573896461514e-02 -5.0952505512118322e-03
      -1.2975326944111987e-01 -3.0051856885057827e-02
      7.8608454559121479e-02 1.8013954858045429e-02
      -7.0565931721224620e-02 -3.4808857372102604e-02
      9.2126733322262910e-03 -3.9336189665416119e-02
      2.9459262497921607e-02 3.7972565944738801e-02
      -4.9173079719346952e-03 -2.5904575505359739e-02
      1.3963250301370997e-01 -6.2448285831077636e-02
      3.3971851392771335e-04 -9.1569855505869630e-02
      -2.1714939652944804e-01 2.0480198080101538e-02
      8.6884580226717620e-02 4.7044239030075555e-02
      -1.3356922340951741e-02 -5.7158616388802527e-02
      4.8380482526405456e-02 5.4702759715418062e-02
      1.3201261902060124e-01 -2.3941392412926650e-02
      1.4093736765274278e-01 -7.8428704975027630e-03
      -3.1381871484633866e-02 -3.0814945916154312e-02
      1.4538064066019925e-02 -5.2510493029408398e-02
      7.9381078749204692e-02 -2.6217819082610765e-02
      -1.5324347400505284e-02 -6.5983315530781475e-04
      -1.0827555234020717e-02 5.6383655248458614e-03
      4.5759804735382645e-02 -5.1804700740507720e-02
      6.8176322731876640e-03 9.8531116929383277e-03
      1.3885421282539623e-01 -7.2232594235478009e-02
      -8.8238683272592235e-03 4.3250960444971100e-02
      -1.2360944748035778e-01 2.5188099141179494e-02
      1.8226203009928893e-01 -1.3288206293835864e-01
      -2.4670095995908611e-01 1.8687411175459096e-02
      -2.7128811010727262e-02 8.3376032506419118e-02
      3.8687074826304686e-02 5.1768660827552450e-03
      -1.4555222638773705e-02 1.0979869554272233e-01
      -4.6085136989883639e-02 9.3751490811474353e-02
      9.0932642310842873e-04 -6.4494510256929344e-02
      1.4854058914116383e-01 -4.2892307970466753e-02
      -3.8620759426368563e-02 4.9439585110384654e-02
      -4.4577902098234548e-02 3.9064058866010526e-02
      5.3275445392771813e-02 -7.3945576522136625e-02
      -5.0456753612700668e-02 7.2094756495172704e-02
      -7.7815914466655381e-02 -4.4378988689684172e-02
      -6.3239034206314396e-02 -4.8621956364359037e-02
      -5.2147096653148685e-02 -3.0160174832433967e-02
      1.4030192361867824e-01 -6.0718986758278012e-02
      -9.0417957966252877e-02 4.3646721212844117e-02
      -1.1224685856838094e-01 -2.0536909712508024e-02
      -2.3406072386659607e-02 -4.2231128189811819e-02
      -5.1362715041208533e-02 -5.9428668286487574e-02
      1.1486375289820963e-01 -9.6323932330453541e-02
      2.3162809991061798e-02 -5.1786214168948942e-02
      -7.5050896369411729e-02 1.1518124981789660e-01
      1.1559256881351411e-01 -2.1947975160827644e-02
      2.7216378342615588e-01 -5.1867436021546073e-02
      1.0700284878911807e-01 -6.7488064501360348e-03
      1.0426489275564440e-02 8.3828646649241431e-02
      -1.4088595570650397e-01 -5.7340348607511096e-02
      3.1730461917304865e-02 1.5233994414151711e-01
      -7.2367144096760164e-02 -2.3575681737007481e-01
      -4.7209116036373490e-02 -3.2234644125540748e-03
      -1.6573770747063142e-02 4.4016873299909595e-02
      -1.0288407502350243e-01 -1.1348571825230800e-02
      6.1395496382647781e-03 1.6311867123138024e-01
      8.9430002520610119e-02 3.7455379066373785e-02
      -1.0207154650079726e-01 -1.2633002116080691e-01
      9.2871970695617024e-03 2.4293761085281022e-02
      6.8173670204726949e-02 -2.6742884544048634e-01
      -4.6059052599308072e-02 -1.6408328884527559e-02
      9.6870936062244221e-03 -4.6739902392273162e-03
      6.1661525171039684e-02 6.6527223124129148e-02
      6.7707788063029128e-02 2.7130011462517693e-02
      -1.3308921420114889e-01 3.8222140815495028e-03
      6.5538690351643614e-02 4.9721508548676366e-02
      -7.9248445272260520e-02 2.2133134941087838e-02
      -1.2316982786414060e-01 -1.6859574369623660e-02
      7.9997927121948476e-02 -1.5729764048310741e-02
      -8.3123263921650748e-03 -4.1032240284394270e-02
      -1.1651788191351202e-02 2.4415012164023435e-03
      -2.1731720980128738e-02 -2.4165442018348228e-02
      7.7852103219729907e-02 3.2026352786012284e-02
      -7.2069079593860580e-02 -7.6967310844552175e-02
      -2.5168921782812808e-02 2.1927802469789540e-02
      -2.6612537569466306e-02 -4.1924591859344502e-02
      5.0717334597189530e-02 -6.4054923818358655e-03
      -1.7316287246179268e-02 -5.0097279363322577e-03
      2.0035844434488061e-02 2.2642045842321632e-03
      7.3843366626905292e-03 1.0262680544735801e-02
      -8.6396672247868577e-03 -9.8081704700044396e-03
      6.0767947646043364e-03 -9.7666955821698806e-03
      -1.7343413759118381e-02 -5.4797222296086795e-03
      7.2642317844297021e-03 2.7590580025010701e-03
      7.6069751268449384e-03 3.5957043803002714e-02
      2.1137194164434967e-02 3.4812148891199400e-02
      1.0768787760496577e-02 1.0038353267579935e-02
      1.2142550907329115e-02 -5.7489106720887652e-03
      -2.6651034442953171e-02 1.0357574206865500e-02
      -3.8471771819729536e-02 1.1206833126043992e-02
      -2.0120734753218262e-03 7.0331495504741609e-03
      -6.6236588174689425e-03 -1.0820639054710058e-02
      9.7120373444597383e-03 1.3105726251772672e-03
      1.4330224276687863e-02 -1.2123957564714545e-02
      4.5322115401683046e-03 -3.4384687568779462e-03
      -1.3272788120953217e-02 3.2358838758389224e-03
      2.7732877207413315e-02 -5.7228419765295004e-02
      1.0466924963798495e-02 -1.8162576176993264e-02
      -1.8038170532911273e-02 5.4736968198019114e-03
      -2.4043790355256240e-02 8.6694270063016020e-03
      -1.7821228774123680e-02 -2.0171480777695604e-02
      -3.0462492080271134e-04 -6.2891664159664101e-02
